/* Generated by Edge Impulse
*
* Permission is hereby granted, free of charge, to any person obtaining a copy
* of this software and associated documentation files (the "Software"), to deal
* in the Software without restriction, including without limitation the rights
* to use, copy, modify, merge, publish, distribute, sublicense, and/or sell
* copies of the Software, and to permit persons to whom the Software is
* furnished to do so, subject to the following conditions:
*
* The above copyright notice and this permission notice shall be included in
* all copies or substantial portions of the Software.
*
* THE SOFTWARE IS PROVIDED "AS IS", WITHOUT WARRANTY OF ANY KIND, EXPRESS OR
* IMPLIED, INCLUDING BUT NOT LIMITED TO THE WARRANTIES OF MERCHANTABILITY,
* FITNESS FOR A PARTICULAR PURPOSE AND NONINFRINGEMENT. IN NO EVENT SHALL THE
* AUTHORS OR COPYRIGHT HOLDERS BE LIABLE FOR ANY CLAIM, DAMAGES OR OTHER
* LIABILITY, WHETHER IN AN ACTION OF CONTRACT, TORT OR OTHERWISE, ARISING FROM,
* OUT OF OR IN CONNECTION WITH THE SOFTWARE OR THE USE OR OTHER DEALINGS IN THE
* SOFTWARE.
*/
// Generated on: 10.08.2021 17:31:25

#include <stdio.h>
#include <stdlib.h>
#include <vector>
#include "edge-impulse-sdk/tensorflow/lite/c/builtin_op_data.h"
#include "edge-impulse-sdk/tensorflow/lite/c/common.h"
#include "edge-impulse-sdk/tensorflow/lite/micro/micro_mutable_op_resolver.h"
#include "edge-impulse-sdk/porting/ei_classifier_porting.h"

#if EI_CLASSIFIER_PRINT_STATE
#if defined(__cplusplus) && EI_C_LINKAGE == 1
extern "C" {
    extern void ei_printf(const char *format, ...);
}
#else
extern void ei_printf(const char *format, ...);
#endif
#endif

#if defined __GNUC__
#define ALIGN(X) __attribute__((aligned(X)))
#elif defined _MSC_VER
#define ALIGN(X) __declspec(align(X))
#elif defined __TASKING__
#define ALIGN(X) __align(X)
#endif

using namespace tflite;
using namespace tflite::ops;
using namespace tflite::ops::micro;

namespace {

constexpr int kTensorArenaSize = 528;

#if defined(EI_CLASSIFIER_ALLOCATION_STATIC)
uint8_t tensor_arena[kTensorArenaSize] ALIGN(16);
#elif defined(EI_CLASSIFIER_ALLOCATION_STATIC_HIMAX)
#pragma Bss(".tensor_arena")
uint8_t tensor_arena[kTensorArenaSize] ALIGN(16);
#pragma Bss()
#elif defined(EI_CLASSIFIER_ALLOCATION_STATIC_HIMAX_GNU)
uint8_t tensor_arena[kTensorArenaSize] ALIGN(16) __attribute__((section(".tensor_arena")));
#else
#define EI_CLASSIFIER_ALLOCATION_HEAP 1
uint8_t* tensor_arena = NULL;
#endif

static uint8_t* tensor_boundary;
static uint8_t* current_location;

template <int SZ, class T> struct TfArray {
  int sz; T elem[SZ];
};
enum used_operators_e {
  OP_FULLY_CONNECTED, OP_SOFTMAX,  OP_LAST
};
struct TensorInfo_t { // subset of TfLiteTensor used for initialization from constant memory
  TfLiteAllocationType allocation_type;
  TfLiteType type;
  void* data;
  TfLiteIntArray* dims;
  size_t bytes;
  TfLiteQuantization quantization;
};
struct NodeInfo_t { // subset of TfLiteNode used for initialization from constant memory
  struct TfLiteIntArray* inputs;
  struct TfLiteIntArray* outputs;
  void* builtin_data;
  used_operators_e used_op_index;
};

TfLiteContext ctx{};
TfLiteTensor tflTensors[14];
TfLiteEvalTensor tflEvalTensors[14];
TfLiteRegistration registrations[OP_LAST];
TfLiteNode tflNodes[5];

const TfArray<2, int> tensor_dimension0 = { 2, { 1,101 } };
const TfArray<1, float> quant0_scale = { 1, { 0.30383923649787903, } };
const TfArray<1, int> quant0_zero = { 1, { -77 } };
const TfLiteAffineQuantization quant0 = { (TfLiteFloatArray*)&quant0_scale, (TfLiteIntArray*)&quant0_zero, 0 };
const ALIGN(8) int32_t tensor_data1[150] = { -3, 75, -2, 10, -37, -7, -126, -105, 4, -13, 146, 72, 40, 1, -95, -4, 124, -83, -47, 5, 17, 73, -120, -75, 126, 137, 2, -92, -102, -22, -30, -71, 83, -3, -4, 19, 94, -56, 90, 57, -13, 101, -54, -66, 19, 9, 52, -65, -93, -19, 115, 56, -58, -158, 49, 1, 197, -12, 120, 136, -72, 123, 119, 154, 26, 4, -32, -23, -94, -59, 155, 8, -93, 202, -10, -25, 22, -2, -47, 5, 11, 9, 21, -75, -88, 182, 65, -81, 140, -9, 17, 129, 75, -109, 34, -60, -25, 76, 99, -126, -30, -2, -117, -48, -124, 33, 8, -37, -50, 16, 24, 10, -86, -1, 39, -147, 32, -20, -110, -46, -37, -51, -112, 117, 17, 185, -94, -71, 69, 140, -3, -5, -53, -50, -55, -9, 39, -87, 64, -6, -12, -129, -107, -115, -34, -8, -11, -114, -55, -29, };
const TfArray<1, int> tensor_dimension1 = { 1, { 150 } };
const TfArray<1, float> quant1_scale = { 1, { 0.00077217479702085257, } };
const TfArray<1, int> quant1_zero = { 1, { 0 } };
const TfLiteAffineQuantization quant1 = { (TfLiteFloatArray*)&quant1_scale, (TfLiteIntArray*)&quant1_zero, 0 };
const ALIGN(8) int32_t tensor_data2[150] = { -268, -260, -5, -126, -128, -118, 698, -296, -56, -238, -68, -118, -189, 67, -50, 119, 193, 114, -355, 164, -511, 314, -89, -136, 12, -231, 95, 284, -100, 84, 251, -69, -131, 59, 44, 476, 151, -252, 78, -435, 667, -423, -322, 492, -146, -495, 123, 295, -90, -261, 268, -41, 569, -185, 425, -150, 277, 434, -199, 563, -83, -139, -54, 257, 669, 134, -302, -399, -295, -80, 261, -222, 0, -395, 74, 68, -56, -103, 158, 334, 48, 459, 258, 637, 154, 312, -352, -211, -25, 20, 401, -55, -92, -350, 520, 214, -62, -279, 360, 724, -36, -310, -71, -186, 444, -50, 69, -581, 450, -121, -254, -115, -372, 297, -259, -96, 369, -95, 909, -459, 118, 35, -398, 265, 157, -261, 313, -142, -246, -11, -118, -33, 565, -52, 488, 115, 542, 856, -46, 362, -200, 157, 168, 588, -199, -312, 562, 287, -100, -10, };
const TfArray<1, int> tensor_dimension2 = { 1, { 150 } };
const TfArray<1, float> quant2_scale = { 1, { 0.00016396889986936003, } };
const TfArray<1, int> quant2_zero = { 1, { 0 } };
const TfLiteAffineQuantization quant2 = { (TfLiteFloatArray*)&quant2_scale, (TfLiteIntArray*)&quant2_zero, 0 };
const ALIGN(8) int32_t tensor_data3[100] = { 969, -260, -249, 504, 1346, -300, -219, -92, 905, -1134, 628, -78, -531, 53, 728, 173, -88, -321, -195, -501, -360, -508, -729, -66, 481, -78, -121, 240, 83, 1494, 588, -408, 1206, -302, -134, -155, 626, -189, 123, 1304, 309, 651, -903, -272, 759, 548, 422, -114, 224, 1461, 1454, 555, -514, -448, -1099, 1142, -651, -123, 709, -404, -834, -86, -507, 137, 552, 239, -269, 1142, -285, -806, -119, 1339, 446, -641, 162, -401, -1198, 1802, 976, -273, -1205, -51, -980, 368, 31, -590, -413, 251, -261, 521, 240, -57, -787, 569, -231, 68, -498, -69, -172, 1096, };
const TfArray<1, int> tensor_dimension3 = { 1, { 100 } };
const TfArray<1, float> quant3_scale = { 1, { 9.3387890956364572e-05, } };
const TfArray<1, int> quant3_zero = { 1, { 0 } };
const TfLiteAffineQuantization quant3 = { (TfLiteFloatArray*)&quant3_scale, (TfLiteIntArray*)&quant3_zero, 0 };
const ALIGN(8) int32_t tensor_data4[3] = { 848, -628, 216, };
const TfArray<1, int> tensor_dimension4 = { 1, { 3 } };
const TfArray<1, float> quant4_scale = { 1, { 0.00013336772099137306, } };
const TfArray<1, int> quant4_zero = { 1, { 0 } };
const TfLiteAffineQuantization quant4 = { (TfLiteFloatArray*)&quant4_scale, (TfLiteIntArray*)&quant4_zero, 0 };
const ALIGN(8) int8_t tensor_data5[150*101] = { 
  -50, -7, 53, 31, -45, 0, 11, -55, 0, -22, 50, -38, 44, -9, -51, -43, 45, -22, -19, -16, 39, -30, -54, -29, 36, -46, 37, 54, 22, 50, -34, 4, -22, 56, 8, 31, 45, 13, 58, 8, -57, -6, 1, -44, 41, 5, -11, 54, 15, 41, 57, 57, -5, -61, 53, -33, -21, -51, -21, 53, -62, 30, -65, 22, 6, 22, -9, 2, -21, -22, -64, -3, 35, -52, 54, -13, 30, 27, -32, 2, -56, -3, -12, 28, 15, 31, 28, -34, -37, -34, -52, 26, -49, -49, 8, -14, 16, -44, 2, 33, -22, 
  35, 57, -13, 8, 58, 39, -46, 58, 60, -26, 17, 34, 59, 38, 56, -46, 30, -60, 40, 46, 21, 20, 4, 13, -1, -36, -5, -6, -12, -35, 74, 44, 49, 61, -52, -34, 29, 33, -82, -41, 31, -68, -19, -82, 24, -44, -39, 35, 19, -37, -28, -56, -20, 29, -47, 32, -11, 55, -4, -16, -27, 1, -36, -40, -14, -56, -71, -28, -24, -62, 14, -46, 55, 30, 53, 19, -29, 66, 46, 62, 78, 120, 2, 99, 10, -27, -34, -49, -35, -5, -14, 44, 24, 33, -64, -8, -54, -12, -14, 32, -5, 
  -1, -28, -53, 51, -42, -9, 4, -21, 19, 49, 34, 51, -21, 32, 46, 8, 58, -49, -8, 59, 39, 52, 40, 41, 4, 25, -26, 35, -11, -58, -7, 50, 5, -1, -20, 27, 64, 21, 24, -40, -15, 67, -31, 19, -2, 26, 0, -60, 28, -18, 46, 5, -10, -5, -59, -17, -25, 47, -13, 45, 27, -27, -24, -31, 1, 39, -28, 23, 27, -31, 46, -41, -24, 15, -43, -17, -28, -9, -52, -29, -12, -55, 33, -40, 37, 34, -54, 7, 31, 56, -18, 0, 65, -8, -44, -49, -2, -52, 7, -34, 15, 
  -61, -14, -31, 23, -1, -36, -38, -5, -54, 43, -39, 37, 2, 41, 20, 44, 28, 7, -18, -13, 41, 41, -9, 17, 57, 53, -57, 60, -46, -36, 5, 5, -41, -57, -7, 54, 62, 30, -47, 32, 35, -39, -12, 41, -17, -6, -26, -53, 2, 38, -56, -51, -49, 40, 28, 8, -58, -20, 25, -23, -6, -18, -24, 35, -25, 18, -16, 27, -38, 20, 50, -43, -49, 28, -31, -45, -32, -58, 3, 45, 14, -50, -45, -25, -43, -27, 52, -3, -18, 48, 36, 51, -40, 52, 52, 47, -4, 43, 60, 34, 2, 
  -10, 28, -12, -44, -6, -5, -14, 23, -55, 39, 8, -41, -55, -29, -1, 2, -47, -68, -54, -27, -43, 8, 4, -35, -7, -53, 23, 10, 4, -43, -45, 35, -7, -57, -3, 46, -34, 50, -47, -44, -35, 39, 47, -62, -15, 4, 17, 40, 47, -25, -47, -63, 14, 39, 22, 45, 26, -7, 26, -24, -27, -24, 0, -13, -7, -46, -9, 26, 38, 50, 28, -49, 24, 41, -6, 40, -25, -5, -54, 5, 6, 2, 42, 42, 53, 20, -40, 33, 12, 5, 23, -44, 22, -18, 21, 31, -39, 6, 29, 22, 0, 
  26, -34, 6, 10, 23, 33, 33, 10, -17, -58, -59, 34, 15, -28, -37, -63, -43, -10, -56, -61, -7, -18, 51, 2, 2, -2, -5, 30, -36, 62, 39, 41, 61, 24, 43, 49, -14, -42, 19, -3, -56, -13, -50, -25, -34, 23, -9, -26, -27, 53, 32, -57, -58, -48, -5, -36, 15, 20, -40, 29, 53, 7, -5, -2, -11, -56, -10, -22, 52, 43, 38, -4, 55, 4, 65, 5, -23, 9, -14, 18, -21, -11, 1, 15, 22, -35, -60, 23, -59, 35, 15, 42, -59, 1, -31, -33, -17, -31, 7, -41, 50, 
  -71, -50, -4, -44, 11, -34, -14, -21, 15, 14, -37, 22, -19, 47, -39, -24, 49, 35, 53, -35, -4, 0, -29, 7, 42, -21, 34, -2, -69, -22, -72, 14, -91, -47, -15, -36, -49, 22, -2, 20, -37, -41, 11, -14, -40, -33, -29, -61, -22, -41, 7, 42, 45, -22, 4, 33, 34, 13, 40, -17, 16, 22, -71, -32, 36, -34, 12, -11, -40, 52, -17, 31, 73, 40, -8, 51, -18, -17, 34, 50, -57, 8, -73, 11, 29, -70, 39, 4, -38, -65, -41, 24, 5, -35, 7, 35, 17, 7, 30, -22, -26, 
  -22, 43, -5, 35, -51, 13, 49, -23, -3, -18, 37, -17, -44, -33, 25, 58, 21, -13, -30, 52, -57, 5, -61, -60, -43, -38, 45, 35, -1, -9, 7, 8, -83, -8, -14, -45, -54, 50, 47, -5, 57, 56, 33, -47, 46, -8, -53, 55, -57, -11, 4, 39, 19, -56, 36, 20, 15, 32, 37, 4, -12, -61, -53, 27, -23, 75, -30, 31, -30, 16, 23, 55, -46, 70, 39, -32, 14, -44, 32, 4, -30, -22, -40, -29, 29, 15, -40, -21, 25, -55, 48, 55, -32, -28, -8, -23, 57, -6, -39, -44, 34, 
  18, -41, -38, -18, -21, -8, 4, -42, -8, 57, 58, -23, 50, 61, 29, 54, -19, -21, -37, 49, 50, 36, 39, 43, 47, 41, -25, -56, -56, -51, -20, 42, 59, -22, -42, 26, 16, 36, 4, 20, -50, 5, -22, 36, 62, -24, 57, 44, -48, -61, -59, -20, 5, -27, -54, 49, -28, -15, -25, -54, 0, 43, -22, -25, -29, -28, -47, 21, -45, -45, 57, -46, 31, 33, -2, 48, 52, -47, 48, -13, 21, -13, -39, -6, -30, 31, 27, -5, -15, 38, -11, -36, -12, 48, 22, 48, 40, 12, 17, -60, -49, 
  1, -48, -22, 56, -43, -25, -44, -16, -33, 41, -2, -13, -54, 57, -21, 56, 17, -17, 56, 39, 26, 36, -60, 30, -57, -12, -37, -30, -50, 18, 23, -11, -7, -19, -32, 46, -57, -57, 13, -60, -54, -58, 0, -1, -12, 51, -40, -1, -33, 17, -57, -19, 29, -23, -52, -6, -39, -27, -12, -10, 13, -25, -38, 8, 11, -62, 48, 36, 51, -40, 30, -13, -12, -59, -50, -25, 47, -31, -32, 53, 27, 18, 27, -47, -36, -40, -25, 33, -30, 37, 27, -45, -13, 4, 39, -13, 56, 31, 4, -46, 56, 
  -54, -54, -50, -49, 53, 12, 34, 42, -39, -7, -35, 31, 33, -4, 13, -13, 20, 40, 40, 32, 31, -3, 38, 50, 34, -16, 38, 62, 73, -23, 55, 80, 47, 62, 36, 51, 21, 73, 53, 89, 38, 11, -19, -30, -35, -31, 27, -55, 58, -39, 50, -24, -15, 11, 60, -58, -9, 20, -53, -8, -41, 34, 54, 37, 27, 36, 60, 21, 47, -29, -47, -58, 58, -39, -33, 53, -48, -54, -57, 21, -26, 59, -59, 52, 30, -44, -65, 43, -12, -21, -38, 8, 23, -7, -43, -22, 23, -19, -1, 14, -20, 
  69, -39, 34, -27, -45, 50, 2, -19, -5, 47, 27, -45, 7, -51, 42, -9, 40, 34, 52, 16, 22, -1, -10, -20, 17, 45, -21, -2, -41, 32, 8, 2, 38, -16, 39, -22, 13, -27, 35, -13, -8, -19, -21, 26, -64, -75, -3, -45, -30, 14, 24, 49, -9, 4, 16, -28, -33, 13, -57, 15, 14, 11, -49, -38, -7, 30, -66, -29, -30, -13, -15, -29, -13, -48, -2, 13, -45, 9, -39, 37, -6, 49, -17, -21, 4, 40, -3, 50, -41, 1, 17, -48, -9, -24, -24, -58, 51, 27, -11, 22, 35, 
  36, -29, -52, 15, 41, -31, -32, -53, -61, 10, 14, -13, 9, -14, 1, -69, -68, -89, -87, -54, 12, -94, -35, 5, -36, 18, 5, 14, 18, 9, 34, 32, -32, 71, 81, 37, 77, 93, 78, 38, 12, 46, 3, 49, 1, 39, 15, 49, -56, 0, -4, -33, -13, 55, -24, -27, -52, 9, 26, 11, -9, 35, 38, 21, 6, -20, -4, 23, -25, 22, 33, -19, -44, -28, 29, -43, 6, 1, -4, 34, -3, -6, 89, -8, 84, 29, 1, -40, 34, 52, 10, -20, -26, 50, -41, 9, 32, 14, -33, -25, -56, 
  7, 10, 14, -3, -57, -42, 8, 59, 4, -52, -42, 11, -11, 36, -33, -4, -41, -55, -29, -20, 13, -28, 34, 62, 34, 1, -45, -10, 26, 36, -14, -19, -1, -54, 53, 5, -50, 17, 46, 57, -22, 13, 58, 17, -59, -13, -35, 55, 58, -20, -28, -48, 31, -39, -50, 38, -54, 15, -15, -33, 43, -32, -42, 44, -17, 23, 21, 23, 44, -29, 34, -39, -12, -12, -34, 19, 6, -13, 16, 18, 4, -5, 28, 3, 33, -45, 18, 56, -28, 0, 39, -48, -12, -21, 1, -54, 4, -10, 27, 13, -13, 
  -51, -1, -20, 4, 0, -52, -8, -39, -64, -16, 14, -37, 19, 62, -39, 59, -12, 2, 31, 61, 61, -7, -49, 23, 52, 33, -40, -18, 28, -30, -68, -51, 37, -43, -25, -67, 23, 36, 18, -53, -13, -24, 17, -58, 4, 16, 9, -63, -61, 33, 35, 2, -63, -29, 33, 22, -37, -18, 48, 16, 34, -9, 31, 21, 17, -7, -27, -42, 15, -43, 37, -18, -16, -6, 56, -3, 65, -21, 47, 19, 31, 15, -8, 28, 22, -36, -39, -42, -38, 23, 42, -62, -62, 9, -46, -28, 20, 43, -52, 19, -16, 
  -41, -5, -50, -23, -59, 55, 32, -29, 33, 10, 45, 2, -49, -40, 58, -6, 25, -23, -10, -30, -47, -16, -51, 44, 36, 29, 55, -24, 4, 59, -3, 13, 31, 72, -5, -29, 4, -38, 68, -12, 51, 0, 14, 1, -23, -46, 16, 25, 9, 20, -28, 51, 8, -55, 30, 8, 38, -31, -36, 0, -1, 12, 27, 4, -56, 60, -13, 32, 42, 4, 2, 19, -52, 23, 31, -46, 3, 50, 26, 21, 31, -24, -37, 9, -16, 26, -38, -5, 22, -21, -7, -43, -54, 61, 51, 47, -53, -24, 62, -21, 3, 
  -24, -8, 48, -27, 22, 20, 29, -17, -29, -38, -74, -26, -90, 16, -34, -17, -30, -62, -103, -98, -18, -94, -85, -40, -67, -54, -9, -38, -34, -15, 16, 32, 34, 25, -13, 21, -6, 86, 30, 81, -23, 53, -26, -17, 29, 56, 43, -22, -7, 20, -43, 24, -28, -15, -21, -42, 40, -23, 30, -44, 4, -36, 43, 57, 79, 36, 2, -33, -19, -48, -34, 9, -68, -7, -2, 54, -28, -7, -50, 53, 26, -29, -23, 32, 98, 79, -15, 38, 38, -25, 42, -31, 32, 11, -38, -32, 32, 27, -6, 12, 11, 
  -36, 44, -18, -11, 37, 29, 60, 62, 56, 50, 60, 14, 28, -14, 14, 3, 23, 6, 66, 7, 41, -22, -9, -23, -2, 39, -39, -20, -16, 50, 32, 16, -16, 31, -3, -65, 8, 4, -5, 17, 36, 50, -30, -19, -3, -15, -7, 14, -52, -13, -27, -45, 34, -37, -56, 49, -13, 55, 15, 6, 56, -56, 54, -35, -25, -48, -5, 14, 27, -42, 43, 3, -19, 24, 19, 14, 0, -40, -38, 5, -13, -33, 12, -30, -70, 42, 48, 50, -41, 55, -60, -26, 33, 41, 43, -17, 14, 68, 5, 16, -33, 
  -38, 29, 46, -27, 39, -45, 53, -36, 12, 6, -33, -15, -25, 63, 35, -15, 27, 48, 15, -28, 21, -7, -37, 23, -42, 42, -36, 7, -50, 39, -68, 35, 34, 32, -21, -58, 28, -38, -29, -4, 5, 50, -19, 12, 13, -59, -23, -64, 13, -57, 3, -4, 38, 33, -44, 17, -17, -6, 45, 41, -31, -36, -17, -5, -40, -48, 49, -64, 13, 32, -15, -14, 54, 52, 59, 49, -53, 55, -6, 10, 42, 0, 14, -4, 34, -31, -55, 39, -25, -23, 6, -78, -43, 27, -19, -65, -66, -4, 39, -35, 49, 
  -18, 30, 20, 51, -56, -1, 12, 63, 20, 48, 42, 21, -16, -27, -31, -48, -9, 4, -20, 35, 48, 12, -47, -39, 8, -31, -17, -38, -40, -25, 16, -21, 44, -5, 58, -34, 12, 56, 19, -3, 6, -25, 50, 1, -24, 27, -4, -10, 13, -50, -60, 36, -58, 8, 12, -24, 27, -27, -57, -15, -57, -5, -39, -8, 49, -32, -52, 34, -4, 6, 37, 28, -58, 61, 30, 57, 45, 3, -41, -20, 35, 28, 35, -7, -59, -6, 49, -41, -3, 28, 14, -25, 25, -9, 53, -56, 60, -28, -47, 34, 18, 
  -46, 5, 51, -57, -56, -40, -14, 3, -13, -54, 41, -44, -40, 54, 27, 26, 35, -16, -16, -42, 34, -43, 34, 18, -31, 43, -17, -7, -10, -22, 2, -7, 28, 33, 4, -2, 57, 8, 41, -11, -17, 13, -43, -1, -36, -44, -12, 34, 6, -29, -59, -25, -33, -59, 18, -36, -43, -6, 43, 9, 14, -53, 9, -45, 31, -12, 20, 38, 8, 15, -19, -47, 3, 45, 25, -53, -21, -8, 48, -60, -16, 6, -46, 32, 2, 8, 0, -21, -37, -31, 38, 14, 47, 10, 53, 25, 2, -25, -17, -59, 12, 
  15, 44, -26, 10, 51, 45, 12, 57, 1, 18, -49, 47, -6, -15, -47, -36, -4, -39, 28, 8, -27, 15, 49, -27, 48, -12, -33, 36, 63, 18, 28, 66, -33, -14, -37, -2, -24, -12, -4, 7, 48, 3, -42, 22, -21, -52, -8, 54, 29, 39, -9, -1, -15, -17, 49, 33, 29, -58, -46, -41, -9, 5, -34, 54, -50, 1, -5, 32, 59, -34, 3, 38, 9, -17, 3, 54, 62, -25, 28, -47, 30, -32, 57, 49, -15, 3, -45, 11, -38, -40, -41, 26, -14, -51, -2, -7, -25, -30, -38, 9, -48, 
  -85, -25, -51, -18, 40, -47, 43, -40, -47, 68, -20, 19, 50, -9, 5, 17, 94, 7, 21, 77, -19, 24, -23, -21, 17, 52, -33, -18, -73, 7, -104, -97, -7, -57, -31, -17, -127, -95, -80, -56, -82, -39, -54, -71, 11, -35, 40, 14, -23, -7, 32, 34, 18, 1, -25, -22, 14, 46, -17, 39, -45, 14, -4, -23, 40, 9, -15, 57, 58, 31, -33, 14, 59, -23, -16, 27, -39, -9, -53, -23, -49, -55, -6, -23, 32, 11, -1, 15, 23, 35, 0, 17, 59, -34, 38, -47, -42, -31, 19, -25, 12, 
  -28, 10, -23, -30, 39, 29, 40, -17, -35, -63, -52, -10, -39, 44, -2, 9, -54, 33, 51, -40, 26, 34, 12, -59, -7, 23, 27, -37, -13, -70, -28, 7, -33, 43, -26, -25, -19, 23, -15, -18, -44, -55, -25, -52, 33, 36, 13, 44, 38, -13, 9, 13, 52, -22, -23, -34, 33, -31, -49, 22, -54, 54, 55, 9, 45, 44, 2, 27, -14, 29, 62, -3, -26, -30, 37, -28, -45, -29, 43, 66, 33, -20, -29, 47, 12, -5, 28, -22, 44, -15, -33, -8, 30, -47, -34, -54, 37, 25, 21, -7, 11, 
  54, 18, -18, 32, -23, -36, 56, 33, 14, -45, 16, 22, 12, -18, -66, -10, -31, -63, -67, -3, -13, -95, 24, 1, 23, -49, -1, 14, 54, 33, 2, 16, 1, 63, -21, -21, -6, 55, 30, -8, 42, 0, -2, -6, -41, 63, -8, 3, 19, -58, 61, 8, -58, -62, 33, -42, -59, -10, 14, 30, 0, 30, 29, 54, -39, 22, -70, -31, -13, -43, 15, -68, 30, -30, -48, -41, 52, -35, 1, 58, 63, 77, 99, 19, 59, 80, 71, 68, 0, -45, -12, -10, 23, 47, -38, -49, -19, 63, 75, -14, -11, 
  0, 16, -15, -36, 66, 2, -57, 12, -17, -81, -20, -75, -36, -60, -62, -17, -73, -98, -76, -39, -5, -12, -32, -89, 12, -76, 37, 24, -4, 26, 9, -10, 91, 103, 94, 21, 62, 109, 33, 25, 74, 57, 51, 12, -18, -35, 23, 44, -36, 12, -2, 18, 38, -20, 2, -36, 36, -26, 53, -22, -7, 17, -40, -13, 3, 48, 58, -3, 54, 54, 8, -64, 25, -49, 16, 41, 1, -41, -29, 5, -43, 51, 75, 63, 74, 23, 69, -10, 73, 24, 12, -11, 52, 49, -48, -35, 20, -73, 33, -50, 33, 
  54, -7, -13, 45, -17, -47, 45, 19, -14, 5, 16, -55, -7, 62, 29, -50, -11, -36, -36, -32, 0, -1, -57, -59, -47, 21, -9, -28, 40, -41, -55, -45, 28, 33, 30, 54, 46, -7, 51, -25, 59, -16, 41, -40, 49, 46, -34, 23, 32, -29, 14, -52, -54, 53, -23, -25, -30, -58, -45, -1, -7, -28, -10, -15, 53, -58, -36, -44, 3, -60, 59, 53, -11, 5, 44, -37, -2, 15, 30, 18, 43, 30, -6, -5, -10, -14, 52, 29, 27, -58, 17, -38, -32, -19, -9, 14, 12, 0, -48, -55, 31, 
  40, -44, -8, -55, 45, -54, 22, 50, 27, -9, 7, -61, -49, 39, -1, 18, 63, 8, 49, 18, -10, 0, 31, 46, 2, 42, 17, 44, -69, -77, -72, 7, 32, -57, 0, 33, -31, 40, -64, 52, 42, -53, -65, 31, 44, -45, 41, -28, -60, -21, -1, 50, -27, 55, 26, -46, 34, -12, 4, 15, -30, 34, 53, 48, 10, 13, 54, 63, -28, 4, 46, 2, 56, -25, 33, -43, 37, 48, 5, -30, -10, 14, -18, -20, 3, 13, -42, -21, 9, -4, 1, -54, 68, 16, -43, 25, 53, 11, 30, -50, 23, 
  18, -15, 16, 66, 31, 24, 60, -12, 62, -22, 49, -28, 19, 21, 46, 91, 44, -8, 76, 87, 96, -1, 13, 69, 60, -4, 11, 28, 38, -20, -19, -11, -28, 49, 14, -1, 5, 43, 5, -27, -59, 17, -7, 33, -28, 26, -3, 0, 50, 54, 28, 29, -30, 23, -32, -25, 8, -30, -21, -55, 54, 6, -26, 10, -14, 3, 14, 32, 56, 44, -2, 22, -28, 17, -35, 22, -19, 25, 67, -18, 5, -47, -2, -44, 17, 21, 13, 25, -6, 7, -65, -32, -24, 30, 47, 53, -52, 47, -29, -39, 21, 
  8, 50, 12, -57, 14, 27, 35, -23, -26, 3, 34, 6, 10, 54, -58, 52, -21, 52, -38, -54, -42, 49, 40, -51, -53, -34, -25, 34, -14, 30, 6, -9, 24, -43, -21, 2, 63, 64, 32, 6, 21, -13, 64, -41, 44, 29, 17, -3, 27, -29, 30, -7, -25, 5, 7, 15, -7, -44, 39, -2, -27, 46, -38, -54, -41, -5, 13, 53, -5, 38, 58, 6, 3, 33, 10, 61, -46, 57, 47, 48, -40, -37, -19, -5, 59, 21, 32, -8, -22, 62, 7, 46, -16, 55, -12, -12, 34, 47, 19, 40, 58, 
  -66, -5, -52, -49, -24, -18, 1, -1, 5, -48, -48, -3, -5, 67, 72, -1, 7, -27, 11, 39, -8, 81, -11, 69, 2, 29, 20, 55, -19, -55, 41, 4, -27, 36, 26, -20, -44, -49, -60, -2, -55, -5, 26, 36, -33, 45, -33, -18, -12, 52, -18, 19, 20, 11, -62, 36, -21, -16, 27, 10, -33, 18, 36, -49, -46, 32, 3, -46, 22, -42, -54, -46, -4, 42, 12, 46, -31, 2, -37, -59, -23, 8, -33, -50, -12, 30, 1, -50, 24, 0, 52, 19, 30, 62, -28, 56, 8, 36, 4, -20, 7, 
  37, 40, 9, 21, 28, -22, -50, 66, 5, 2, -22, -10, 61, -43, -22, 58, 63, -17, 1, -33, -51, -27, -25, -28, -37, -53, 10, 25, 28, -19, -52, 56, -21, 49, -51, 22, -63, -15, -14, -53, -54, -73, -27, -79, -63, 27, 34, -63, -35, -32, -7, -51, 19, -22, 29, -32, -4, -19, 11, -36, 64, -37, 26, -16, 52, 26, 67, 62, 30, 41, -60, -34, -79, -60, 18, -1, -12, 4, -27, -59, -60, 20, 47, -45, -29, -26, 12, 89, 55, 78, 3, -22, 38, -35, 5, -27, 59, -12, -50, -33, 33, 
  60, 12, 33, -26, -19, -37, 36, 38, -36, 53, -1, 49, 24, -19, 6, 42, -18, -27, 23, 34, -43, -23, 42, -62, -69, -34, -9, 31, 55, 47, -50, 11, 63, -3, -41, -21, -38, -11, -38, 42, -57, -66, 14, -11, -10, -41, -15, -50, -28, -6, 19, 58, -18, 54, -57, -2, 14, -23, 26, -35, -19, -54, -23, -11, 20, -71, -33, -24, -51, 21, -71, 23, -41, 15, -48, -30, 32, -15, 37, 4, 32, 1, 35, -14, -8, 68, -21, 39, -16, -22, -44, -41, -82, -21, 39, -28, 27, 44, 48, 53, -34, 
  13, 50, -37, -10, 59, 1, -35, -57, 1, 21, 21, 30, 36, -6, 29, 12, 7, -33, -30, -32, -20, -57, -46, 51, -14, -27, -11, 8, -18, -26, 54, 33, -49, 56, 14, -43, -36, -9, -55, 39, 25, 19, -25, -31, 53, -42, -59, 54, -60, -59, 12, 38, -62, -61, 13, 3, 7, 3, -38, -61, 32, -14, 27, 6, -32, 47, 26, -47, -25, -26, -17, -42, -41, 1, 38, -32, 1, -23, -4, -15, 44, 26, -1, -10, 21, -32, 29, 18, -40, -53, 4, -55, 63, -21, 54, -37, -28, -45, -3, -4, -46, 
  -67, 11, -40, -14, -9, -38, 30, 32, 30, -65, 41, 31, 54, 1, -34, -32, -23, 17, -35, -20, -57, -8, -55, 21, 4, 24, 10, -55, 45, 49, 33, 12, 2, -4, 32, 16, -31, -44, 41, -40, -59, -4, -34, 30, 47, 13, -36, -15, 45, 12, 38, -25, -8, -54, 20, -5, 7, 49, -29, 6, -62, -27, 35, 25, 51, -2, -51, 65, 25, -7, -26, 0, -11, -10, -27, 27, 57, 61, 12, -26, 50, -11, -43, -45, 27, -57, -5, -17, 12, 48, -33, 35, 68, 64, -42, 7, 56, 19, -28, 31, 21, 
  53, -54, -9, -44, -52, -34, -56, -8, -28, -38, -18, 67, 3, 32, -17, 31, 66, 62, 12, 49, -7, -43, 45, 58, -11, 1, -21, 65, -50, 65, 6, -23, 10, -6, -46, -15, 38, 30, -9, 67, 10, -37, 20, 36, 17, 20, -16, 27, -46, 5, 27, -26, -61, 27, 45, -44, 38, 14, -55, -64, 12, -65, -41, 44, 8, 29, -21, -5, 48, 39, 47, 0, 59, 54, 65, 33, 20, -53, 2, -10, 39, -2, 38, 9, -51, -5, 16, -44, 41, -4, 47, 50, 38, 10, -54, -6, -6, 10, 49, -59, 9, 
  64, 35, 38, 10, -18, -31, 22, -67, -31, -20, 35, 14, 30, 29, -76, -58, -82, -46, -73, 28, -19, 39, -24, 47, -47, -4, -5, -27, -29, -5, 23, 12, 21, 17, -13, 63, 84, 56, 18, 25, 77, 62, 40, -43, 23, 62, 5, -32, -43, 60, -7, -14, -60, -47, 48, 48, 10, 0, 41, -53, -33, -10, 25, -37, -47, -7, -20, -18, 40, 44, -4, 15, -51, 33, -28, -16, -40, -5, -51, 54, -42, -1, 41, 23, 34, 36, 32, 13, 36, -29, 44, -57, 9, 25, -76, -63, 40, -31, -20, -51, -57, 
  -15, -63, -12, -24, -4, 6, 22, 9, -30, -50, -65, -48, -57, 23, -22, -15, 21, 35, -38, 11, 36, 8, -52, 28, -8, -71, -47, -56, 13, -12, -55, -76, -60, -30, 16, 31, -59, 31, -48, -21, 19, 34, -20, 29, -42, 50, 15, -35, -41, 32, -69, -53, -31, 43, -57, -10, 50, 28, 40, -26, 49, -21, 27, 43, -35, -44, -38, -23, -26, -6, -9, -17, -20, 6, -42, 50, 10, -9, 29, -36, 11, -55, 28, -12, -68, 14, -18, -54, 6, -23, 27, 14, 4, 6, -28, -47, -6, 37, 43, -26, 56, 
  -14, -48, -25, -28, 19, 9, -54, -29, -30, -79, -56, 6, 28, -73, -62, 22, -44, 30, -58, 6, -62, -53, 2, -15, -45, 27, -30, 3, 73, 8, 37, 81, 61, -5, 19, 82, 20, 80, 84, 68, 24, -30, 54, -43, -24, 12, -14, 27, -56, -17, -27, 10, -48, 26, -43, 54, 45, -8, -36, -22, 55, -19, 4, 41, -46, 76, 30, 9, -49, -26, -11, 23, 6, -21, -48, -34, -11, 9, -26, -19, -20, 26, 39, -60, -58, -31, 50, -23, 1, -52, 38, 27, 53, 28, -1, -35, -12, 1, -47, 16, 10, 
  51, 0, 17, 48, -41, 45, -7, 44, -42, 27, 34, -56, 1, -40, 5, -39, -5, -53, -24, -27, -44, 53, -29, 5, 54, 40, 52, 39, -31, -5, 9, 64, 79, 39, 40, 25, 31, 14, -2, 50, 0, -49, -1, -48, -64, -39, -42, 54, -52, 13, -39, 39, 47, 28, -56, -13, -42, 21, 30, -55, 56, -10, -33, -38, -82, -65, 38, -18, -64, 45, 42, 60, 50, 51, 53, 59, -13, -22, 77, 58, 36, 107, 82, -11, 74, 63, -21, -47, 48, -46, 35, -29, 26, -2, -76, 43, -68, -75, 35, -54, -54, 
  -33, 44, -16, -23, 14, -4, 30, 37, -32, -34, 41, -46, 5, 44, -51, -53, 28, -62, 56, -16, -10, 31, -54, 26, 52, -49, 23, -19, 2, 16, -19, -36, -7, -24, -11, 13, -57, 29, -54, 29, -3, 48, -27, 18, -31, -53, -35, -45, 16, 44, -23, -19, 40, -49, -25, -5, -43, -5, 27, -42, -27, -7, 23, -37, -13, -29, -26, 55, 39, -58, 8, -49, 16, 23, -9, 26, -43, 52, -23, -42, 39, 20, 34, 32, -44, 5, -54, 13, -56, -51, -29, -45, -49, -25, -17, 10, -14, -8, 44, -18, 53, 
  24, 66, -49, 40, -62, -32, -11, 47, -46, 14, -72, -9, -78, -75, -19, -9, -26, 13, 10, -50, -67, 11, -70, 14, -58, -19, 0, -18, 28, 17, 18, 46, 72, 92, 56, 86, 10, 50, 98, 52, 8, 26, 4, -30, -22, 44, 37, -33, 4, -27, -8, 61, -24, 35, 36, -57, 59, -6, 46, -56, -59, -9, 27, -17, -52, -38, 2, 44, 59, -29, 40, 21, 12, 15, 28, 16, 45, -40, 33, 39, 19, 59, 51, -42, 36, -58, 16, -61, -65, -7, -55, -29, 11, -58, -46, 22, 13, 35, -53, -30, -75, 
  -59, 48, -21, -55, -57, 53, -16, 49, -49, -43, -7, -26, -43, -31, 70, 15, 56, 16, 0, 49, -17, 71, -22, 19, 76, -17, 58, -34, 25, 11, 50, -39, 29, 15, -7, 29, -45, 32, -49, 54, 8, -57, 17, -51, -21, -39, -60, -18, -27, -49, 32, 6, 48, 6, -31, -26, 3, 49, -13, 33, 11, 0, 47, -9, -56, 20, -34, -16, -20, 32, -24, -37, 57, 29, -25, 23, -46, 10, 7, -35, -58, -36, 34, -69, 23, 21, -41, 26, 27, 39, -51, 34, 3, -35, -8, -15, -17, -19, -38, -41, 64, 
  -68, 25, -34, -81, -18, -79, -69, 13, -39, 24, -5, 7, -53, 10, -69, -8, 33, -52, -18, -7, -10, -31, -22, 34, -58, -18, -1, 25, 14, -8, -46, 31, -24, -47, 23, -16, -22, -32, -31, 51, -44, 19, -1, -21, -42, 20, -29, 9, -10, 38, 20, -65, -44, 26, 39, 0, 22, -15, 4, 11, 46, 23, -30, -42, -60, 53, 7, 19, -40, 39, -40, -50, -27, 1, 6, 19, 21, 61, -38, -2, -62, -46, -60, -15, 7, 6, -3, -37, -57, -14, 32, 32, 47, -41, 40, 20, 2, 58, 44, -42, -2, 
  -41, -26, -30, 31, -32, -21, 47, -7, -15, -48, 21, -17, 28, -25, -13, -13, -43, 48, -54, 18, 14, 37, 40, 13, 65, 14, 40, 61, -50, 28, -23, 64, -53, -37, -25, -38, -39, -13, -12, -43, 8, -2, -5, 15, 27, 66, -53, -18, -59, 4, -13, -54, -58, -38, -26, -62, 42, 49, -59, -59, 32, 36, 19, -13, -29, 40, -26, -19, 1, 64, -31, 26, 3, -6, -10, -18, 58, -52, 19, -16, 0, 49, 35, -57, 19, -63, -45, -31, -57, -8, 28, -33, -12, 23, -16, 36, -32, 19, 59, 28, 32, 
  -9, 51, 25, -24, 6, 48, 40, 15, 53, -14, 63, -14, -50, 4, -40, 57, 15, -32, 17, -20, -41, -26, 21, -9, -18, 40, 55, 9, -36, 51, -9, 10, 24, 42, -4, 11, -48, 7, -2, -34, -65, -19, -12, 25, -5, 12, -7, -57, -22, -50, -36, 44, -53, -28, -43, -57, 30, 60, -8, -4, 54, 20, -52, -7, 1, 38, -53, 31, -39, -42, -49, 28, 53, 46, 12, -18, -3, 2, 1, 16, -28, -36, 59, -36, -1, -50, 22, 26, 3, 21, -53, -43, -2, -38, -4, -23, -31, -21, -5, -1, -52, 
  -6, 16, 26, 35, -40, 22, 50, -16, 9, 59, 18, 23, 3, 43, -52, 22, 6, -39, -52, 59, 3, 1, -35, 34, 63, 42, 46, -4, -30, 48, -5, 19, -24, 2, 28, 22, 44, 5, 4, -65, -12, 38, 17, -21, -23, 2, -38, 45, 51, 10, -18, -16, 50, 4, -58, -19, 2, -23, 25, -54, 40, -53, 49, 21, 46, -36, -22, 41, -29, 43, -55, -49, -52, -1, 31, 55, 9, -3, -5, 45, -22, -31, 50, 78, -42, 64, 67, -13, 70, -49, -50, 59, 58, -54, -28, -45, 50, 63, -48, 18, -2, 
  -63, -12, -61, 40, -65, 1, 39, 51, 14, 11, 5, 46, -50, 46, 54, 47, -39, -16, 4, 37, 22, 15, 47, 54, 25, -37, -31, -62, -63, 29, -79, -69, 8, -76, 10, 31, 30, 17, -13, -52, -2, 20, -9, -45, -74, -65, -64, -67, -13, 40, -44, 6, 49, 30, 17, -2, 37, 3, 45, 32, -41, 40, -58, 1, -52, 25, 30, 69, 7, -28, 71, 20, 1, 69, -27, -43, 64, 19, -26, 11, -6, -12, -64, 13, -5, 25, 37, -6, -43, 42, 25, -4, 37, -19, 41, -30, 38, -52, 60, 51, 46, 
  17, -22, -19, -47, -35, 27, 20, 14, -41, 26, 24, -66, -64, 7, -54, 9, 40, -48, 1, 54, 0, 24, 9, -41, 20, -32, -51, 25, 16, -33, -64, 51, 18, 50, 6, 23, -3, 52, 8, 1, 41, 14, -21, 32, 54, -64, -1, 21, -56, -68, 18, 25, 41, -28, 41, -5, -9, 29, 35, 11, 28, 9, -74, -61, 41, -56, 50, 48, 35, -16, -36, 6, 35, 57, 76, -27, -19, 39, -19, 65, 7, -21, 37, -35, -54, -57, -25, 42, -71, -46, -25, 25, -21, -56, 14, -12, -45, 40, -48, -50, 0, 
  4, 56, 57, 45, 3, -8, 1, -13, 65, -26, 51, -39, 47, 67, -21, 29, -18, 62, 49, 35, 13, 66, 10, 16, -31, -23, -18, 26, -51, 37, -30, 20, -22, -36, 34, -31, -6, -15, -42, -16, 32, 29, -15, -33, 18, -42, -59, -4, 7, -2, -38, -21, -4, -12, 57, -51, 48, -11, 31, 13, 38, -48, -20, -54, 15, 3, -37, 57, -49, 32, -2, -2, -46, 18, 47, 37, 43, 54, 23, -51, 47, 22, 29, 43, 47, -39, -67, 48, -24, -63, -6, 27, -5, 23, -17, 5, -43, -3, 13, 1, 70, 
  -58, 64, 50, -20, -40, 57, 51, 27, 48, 63, -39, 30, 37, -36, 82, 29, 80, 82, 39, 91, -6, 22, 5, -3, -1, 85, 67, 13, 38, 26, 12, 25, -11, -36, -14, 62, -33, -39, 39, 42, -31, 11, -7, 29, -49, 46, -29, 9, 73, -45, 44, -34, -45, -36, 21, -31, 6, -46, -62, 35, 28, 52, 0, 1, 18, 11, -56, 62, 61, 58, 21, -4, -20, -32, 50, -23, 74, 52, 43, -6, 51, 44, -10, -53, -72, -89, -5, -64, -9, -90, 14, -60, -30, 12, -40, -83, -1, 23, -39, 14, -42, 
  4, 32, 32, -39, -45, -37, -8, -17, 29, -69, 12, -20, 5, -19, -1, -59, 24, -3, 38, -13, -51, -4, -47, 10, -43, 52, 32, -6, -35, 65, 54, 1, -16, -1, 38, 61, 71, 69, 3, 55, 17, -5, -18, 5, 61, 42, -49, 54, -28, 7, 15, 14, 24, -9, 48, -31, 17, 2, -34, -45, 27, 17, -45, -29, -41, -46, -38, 16, 63, 51, 32, -47, 12, 49, -21, 49, 2, 33, -58, -34, 0, 14, -20, 1, 10, -6, 6, -9, -42, 3, -13, -11, 0, 48, -34, 19, -27, -56, -5, -27, 0, 
  0, -31, -14, 40, -29, 39, -35, 22, 12, 36, 12, 53, -51, -48, -12, 7, -11, 28, 40, -52, -4, -2, 34, 9, 8, -4, 54, -28, 41, -15, 32, -43, -49, 19, 52, -15, 42, 12, -45, 51, -41, 39, 6, -16, -17, -33, -17, 5, 23, 24, -15, -44, 3, 16, -40, -7, 17, 1, 11, 47, -31, 33, -23, -22, -19, 2, 50, -37, 45, -41, -3, 0, 29, 9, 3, 21, -28, 32, -49, 51, 1, -24, -15, 35, 32, -49, -54, -3, -26, 3, 15, 26, -19, 55, 16, -51, 48, 12, 4, -21, -48, 
  -27, -3, -31, 58, 21, 9, 4, -24, 72, 45, 34, 56, -12, 17, 23, 70, -4, -4, 30, 68, -32, 14, -39, 30, 30, -13, -77, -6, -3, -50, -46, -47, -12, -89, -54, -3, -54, -40, -85, 32, -6, 11, 2, -39, 41, -44, -11, 48, -26, 5, -40, -13, 11, -35, -38, 44, 27, -15, 52, 3, 45, 4, -34, 33, -3, -25, 9, 31, 24, -21, -6, -42, 62, 63, 42, 33, 47, -8, 5, -9, 46, 48, -37, 41, 6, 41, 25, -43, 58, -15, -43, 13, -31, -8, -43, -7, -60, 56, 14, 46, -18, 
  69, 24, -27, -28, 42, 23, -61, -17, -18, -29, -12, -9, 30, -42, -54, 1, -28, -41, 11, 7, -64, -19, 26, 60, 14, -19, 21, -31, -22, 32, 20, 39, 11, 55, -6, -13, 11, -53, 37, 35, -45, -58, 15, 30, -62, 30, 51, -21, 53, 40, -7, -22, 40, -11, 25, -38, -46, 33, -47, 17, 22, -52, 23, -28, 7, -39, -9, 33, 0, 60, 13, 35, 3, -15, 13, 25, -45, -42, 64, 24, 28, 17, -23, -23, 26, -9, 52, -11, 17, -14, -59, -8, 45, 40, 17, -11, -35, -64, -52, -70, -59, 
  -20, -31, 39, 26, -54, -3, 55, 36, -46, -59, -25, 56, 2, -1, 5, -34, 45, -21, -10, 55, 61, 12, -57, 52, 19, -22, 38, 1, -10, 38, 48, 9, 0, -51, 47, -35, -22, 37, -47, -46, 31, 51, 14, -12, 14, 55, -27, 16, -6, 3, -40, -60, 26, -14, -3, -35, -11, 48, 15, -36, -12, -51, 41, 54, 17, 38, -47, -26, -18, -14, -60, 36, -37, -24, -22, 31, -51, 49, 12, 12, -21, 8, 47, -59, 42, 10, 48, 40, -17, -5, 12, 36, 22, -21, -8, 51, 19, 34, 7, 16, -46, 
  6, -65, 20, -8, -16, 35, 27, 12, -33, -75, -7, -53, 35, 8, 13, 27, -19, -27, -7, 46, -22, -44, 42, 41, 45, -14, 7, 69, -35, -30, 83, 19, 74, 6, 14, 64, 9, 44, -20, -5, 30, -20, -43, 56, -13, -4, 44, -29, 56, -32, 5, 53, -54, -11, -57, -49, -1, -41, -15, 28, -30, 60, 18, 64, -19, 46, -14, 39, 14, 56, 91, 42, 60, 51, 37, 83, -21, 40, 2, -36, 30, 36, 9, -39, -84, -32, -117, -105, 9, 13, -82, -25, -7, -32, 19, -23, 11, 15, -54, 10, 36, 
  -60, 34, -14, -56, 7, 3, 48, 2, 36, -61, -24, 15, -52, -59, 25, 29, 22, -9, 28, 16, 18, 20, -41, -20, 32, -9, 0, -57, 37, 61, -8, 20, 58, 39, -54, -30, -51, 56, -21, 21, -24, -16, 52, 22, -10, -39, -8, -41, -39, -2, -15, -46, 25, 45, -61, 21, -53, 25, -10, 13, 57, -3, 37, -2, -47, 60, 0, -9, 17, -49, -38, -30, 11, 16, 29, -47, 32, 28, 51, -2, -50, -3, -27, -9, -18, -3, 50, -39, 49, 40, 12, 25, -34, 0, 44, 58, -16, -54, -35, -11, -56, 
  55, -58, -12, 49, 43, 22, 16, -15, 40, -1, -63, -39, -25, 6, -67, -88, -91, -73, -55, -28, -37, -58, -19, -79, -8, -59, 12, -37, -52, -23, -8, 8, 52, -6, 64, 78, 22, -4, -6, 29, -28, 3, -51, -47, 22, 11, 26, 45, 18, -5, 5, -44, -57, 23, -56, 56, 21, -17, -54, 8, 9, 18, 55, 17, -41, 44, 63, 42, 56, 23, 16, -65, -22, -51, 48, -66, -29, -14, 45, -59, -1, 31, -29, 72, 69, -36, 2, 70, -7, 18, 51, -31, 13, -3, -55, 46, -14, -35, 23, -68, -63, 
  60, 9, -57, -49, 54, -52, 29, -76, -7, -22, -20, -12, -18, -41, -48, -45, -18, -11, -58, -32, -103, -2, -81, 32, -21, -43, 3, 38, 73, 33, 3, 90, 76, 32, 83, 59, 67, 122, 126, 84, -1, 59, 6, -16, -4, -3, -7, -59, -57, 34, 23, 45, -44, 35, 7, 1, 24, 58, -42, 10, -33, -18, -10, -13, 28, 17, 36, 68, 14, 16, 20, 29, 21, 17, 16, -35, -28, 4, -37, -42, -44, 43, 53, -1, 41, 93, 1, 77, 17, -9, 76, 30, 34, -38, -29, 15, -75, 2, -41, -24, -82, 
  1, -3, 33, 11, 44, -33, -36, -46, -24, -32, -11, 27, 26, -41, 6, -26, 53, -27, 7, 6, 27, 33, -41, 36, -45, 59, 19, -25, -22, 9, 68, -12, 28, -6, 34, 27, -27, 21, 56, 54, -3, 34, 5, -3, 46, -1, 7, -15, 28, 36, 45, 5, 42, 21, -21, -10, -33, -49, 50, -45, -30, -11, 14, 10, -34, -13, -8, 27, 9, 57, -27, 42, -53, -43, -51, 6, -4, 5, 32, 26, 29, -46, -45, -30, -5, -68, -13, -3, 1, 21, -39, -58, -7, -49, 30, -10, 47, 18, -41, -30, -18, 
  -12, -7, 45, -41, -11, -29, -19, -44, 17, -66, 4, -54, -83, -98, -66, -53, -83, 17, -63, 6, 7, -84, -11, -81, 6, -16, 30, 0, 4, 31, 2, 9, 73, -1, 35, 31, -10, -23, 34, 19, 51, 32, 11, -56, -15, 37, 10, -63, 40, 40, 27, -58, 19, 55, 10, -2, -55, -53, -35, 58, 56, -49, 68, -43, 63, 59, 51, 0, -30, 35, 44, 57, -48, -12, -7, 42, 5, 28, -39, 4, -51, -29, -40, 14, 61, 10, 45, -14, -5, 27, 8, -28, -12, 51, -61, 31, -49, -58, -23, 7, -2, 
  27, 6, 64, 9, 40, 3, 77, 57, 37, -43, -29, 55, 2, 66, 19, 82, 83, 24, 41, 30, 22, 67, 50, 60, 21, -9, -25, -33, 77, 5, 15, 18, -18, 14, 19, 45, -14, 13, 8, -49, 8, 20, 49, 0, -10, 59, -36, -50, 16, 51, -38, -23, 18, -11, 4, -31, -36, -32, -33, -20, 46, 24, -29, 15, 14, 43, -11, 50, 2, 21, 50, 122, 34, 35, 31, -37, 32, 13, -20, 26, 63, -33, -16, -60, -88, -57, -57, -78, 22, -49, -34, -4, 17, -77, -66, -14, -52, -60, -60, 6, 29, 
  23, 62, 64, 57, -39, -6, 48, 50, 55, 66, -10, 52, 63, -16, 54, -5, 1, 2, -14, 39, 18, 57, 86, 76, 81, -22, 11, 86, -20, 42, 57, 64, 33, 50, -23, 31, 44, 38, -64, -32, 0, -7, -16, -6, 3, 1, 41, 23, 28, 5, -41, 57, -64, -35, -5, 13, -44, 5, -6, -6, 21, -18, -36, 1, -26, 17, 45, 5, -1, 42, 13, 50, 78, -20, 55, -10, -18, -15, -7, 19, -12, -50, -73, -82, -55, -61, -19, 19, -77, -31, -23, -79, -6, -37, 41, 2, 41, -61, 48, -60, 1, 
  30, -58, 7, -4, 28, -5, 29, -28, -32, 48, 2, 43, -16, -25, -8, -21, -2, -37, 66, 12, -5, 60, 29, -51, -7, -37, -16, -39, 3, -8, 22, 4, 53, -22, 15, 25, 53, -31, -30, -16, -2, -27, 25, -28, -50, 57, 46, 3, 29, -61, -17, -53, -43, 3, -62, 26, -6, -10, -9, -30, -33, -5, -51, 6, -10, 29, -6, 13, -47, 8, 65, 45, 63, 41, -40, 30, 9, -27, 25, 24, -27, -69, 2, 0, 33, 43, -53, -30, 47, 7, -2, 43, -43, 31, 52, 6, -65, 41, 32, 8, 11, 
  -11, -36, 40, -19, 54, 50, -9, 34, 3, 50, 22, -55, 13, -27, -21, -26, 43, -26, -5, 17, 45, -57, -55, 29, 46, 10, 57, 25, -45, 26, -19, 22, -35, -34, -51, 38, 18, -12, 36, -59, 33, 49, -55, 39, 24, 35, -32, -22, -38, 8, -30, -55, 9, -42, -56, 53, 40, -47, 17, -46, -13, -41, -2, 33, -19, -5, 1, 3, -52, 31, 49, 38, 58, -14, 43, -8, 44, 33, 5, -3, 27, -23, -7, -30, 2, -44, 43, -13, 14, 55, 20, -49, -58, -22, -27, 10, 39, -8, 34, -61, 13, 
  -29, -3, 12, 18, -12, 8, 23, -2, -31, -37, 32, 13, 30, 44, -63, -53, -21, 36, -3, -33, -32, 23, -68, -27, -30, -65, 11, -26, 10, 25, 2, 5, -46, -80, -65, -71, -26, 40, 6, -26, 1, -60, 5, 9, -36, -53, 29, 3, -8, -41, 4, -53, 33, 21, -37, 21, -39, -7, 44, 55, 34, -60, 54, -25, -7, -38, 41, 33, 58, -41, -51, -9, 44, 43, 21, -37, -60, -15, 40, -18, -19, -1, 28, -50, -17, -30, -16, -42, 56, 19, -34, -13, 70, 19, 20, 51, -45, -32, -5, 37, 26, 
  -8, 11, 9, -2, -26, -42, 16, -38, 43, 39, 41, -10, -62, 10, 26, 22, -41, -35, 39, 25, 19, 12, -21, -37, -1, -52, 40, -50, 15, 18, 35, -7, -16, 16, 10, -67, 50, -5, -32, -61, 3, -29, -11, -31, -21, -19, -13, 22, 16, 6, 51, -22, -19, -19, -43, -52, -46, 14, 21, -9, -53, 48, -39, -54, 1, -35, 16, 32, 35, 33, -8, -11, 31, 43, -65, -30, -24, -15, -56, -18, -33, -8, -10, -1, 27, 65, 64, -36, -49, 29, 53, 2, 32, -51, -10, 39, -19, -52, -47, -32, 5, 
  -82, -70, 27, -65, 10, -34, -54, -53, 51, 13, 45, -34, -14, -35, 5, 36, -40, 60, 30, -37, -4, 61, -42, -46, 36, -28, 37, -35, 18, -75, -69, 5, -86, -60, -16, 0, -85, -1, -49, -43, 21, -53, 9, -27, -54, 40, -71, 30, -27, -40, 20, -6, 18, 18, 7, 34, 42, -5, -27, 49, -18, -7, 5, 19, -26, -36, -37, 8, -13, 10, 12, 12, 23, 50, 35, 41, 40, 29, 14, 47, -47, 12, -32, -40, -8, 16, -30, 31, -30, 10, -6, -30, -39, 18, 45, 54, 37, 33, 20, 54, -47, 
  24, -22, 41, 48, -53, -56, -28, -8, -49, 35, 16, 50, -54, -23, -57, -71, -61, -70, 39, -47, 12, -68, -22, -40, 52, -50, -17, -51, 38, -39, -50, 52, 58, 66, 55, -5, 30, 4, 21, 44, -11, 6, -40, 10, 58, 21, -68, -9, 32, -10, 30, -43, 44, 39, -23, -69, 32, 22, 4, 5, -15, -17, -47, 49, 4, -43, -31, 64, 4, 23, -1, 45, 24, 31, -1, 43, -43, 21, -6, 23, 49, 35, 15, 31, 43, 40, 22, -61, -18, -55, -43, -12, 55, 27, 49, 61, -44, 3, -9, -50, -51, 
  -91, -70, -59, -99, -50, 8, -78, -47, -108, -92, -28, -82, -63, -89, -3, -22, -34, -107, -25, -40, -67, -64, -21, -22, -48, 40, -16, 49, -39, -43, 2, 72, 70, -5, 50, 25, 85, 80, 30, 23, -24, -53, -8, 15, -11, -56, -16, 19, -30, -31, -58, -6, 0, 4, 38, -13, -6, -33, 23, 40, 19, -39, 14, -6, -4, 34, 14, 10, 23, 19, -21, 15, 2, 57, -38, -43, 35, 6, -75, 3, -13, -3, 12, -14, -37, -56, -37, -63, -31, -21, -10, 28, 9, 55, -3, 29, 14, -26, 34, 18, -32, 
  -13, -31, 44, 13, -24, 9, -4, -53, 8, 33, -31, -46, -38, 50, 40, -50, 46, -40, 33, -57, 45, -52, 43, -28, -51, 44, 51, -29, 3, -25, -27, 8, 34, 25, 30, 7, 57, -53, 51, -52, 18, -45, 7, -32, 23, 32, 27, -55, -59, -60, -46, -52, 11, -42, -23, 18, 37, -56, -30, -59, -61, -49, 49, -34, -41, 1, 22, 5, -52, 42, -49, 10, -22, -8, 48, 59, -49, 61, 52, -37, -52, -61, 57, -46, 33, -62, 44, -21, 49, 40, 41, -5, 21, 32, 20, -61, -54, -7, 17, -10, -20, 
  -61, -34, -74, -9, 36, -23, -20, 28, -13, 23, -30, 0, 27, 33, 50, 69, -10, 22, 61, -26, 52, 52, 40, -42, 13, -43, -36, 44, -54, -80, -72, -47, -84, -27, -97, -18, -70, 15, -17, 3, -41, -79, -70, -28, -11, 20, -28, 55, -45, 30, -29, -27, -63, 16, 5, 3, 31, 53, 56, 23, 13, -54, -30, 38, -7, -59, -45, 26, 5, 44, 24, 52, -16, 25, -7, -60, -60, -45, 32, -48, -70, 21, -20, -75, -33, 20, -51, -57, 20, 55, -32, -10, -35, 0, 16, 14, 17, 35, -13, -42, 38, 
  60, -40, 25, 11, 36, -5, 4, 37, -5, -17, -17, 45, -13, -39, -59, -10, 0, -26, -3, 32, -53, 38, 11, -29, -21, -36, 60, 54, 0, -15, -26, 67, 60, 10, 39, -62, 36, 17, -55, -5, -83, -76, -46, 3, 8, 48, 41, 15, 42, 43, -16, -30, -5, 18, -12, -9, -39, -26, 44, -14, -18, 33, -10, -66, -32, 43, -4, -32, -9, 17, 59, 35, 9, 20, 47, -39, 17, -17, 12, 26, 83, 103, 12, 83, -11, 24, -25, 32, 4, 1, -2, -35, -36, 14, 24, -45, 4, 20, 0, -29, -66, 
  -31, -3, -32, 45, 32, -57, 34, 27, -26, -15, -27, -22, -59, -23, 34, 19, 5, 1, 25, -36, 4, 31, 6, 34, -1, -13, 22, 45, -39, 19, -52, -61, 0, 16, 49, -48, 58, 3, -25, 7, -24, 10, 24, 10, -28, 21, -52, 55, 54, 30, 7, 14, 19, 17, -44, 3, 14, -21, 17, -40, -47, -53, 15, 40, 25, -25, 36, 60, -32, 61, -5, -47, 66, -20, 13, -35, 56, 33, 24, 32, -53, 22, -12, 50, -28, 60, 49, 30, 17, -14, 59, -41, 65, 53, -15, -12, 22, 62, -47, -14, -14, 
  22, -39, 33, 5, 30, 10, -27, 10, -28, -31, -49, -26, -30, -13, 12, -3, 45, 21, 31, -28, -45, 14, -63, 39, 40, -54, 16, -37, 10, 30, 18, 26, -10, 66, -45, -19, 37, -19, 41, 25, 0, -23, 73, 42, 64, 15, -40, -4, -51, 52, 30, 2, 11, 7, -3, 25, 3, -49, 17, 1, 24, -46, -31, -22, -16, -20, 58, 29, -1, -13, 9, -55, -2, 39, 62, -47, 61, 9, -24, -39, -33, -35, 74, 40, 47, -14, -40, -27, 1, 47, 48, 2, -22, 34, -8, 5, 46, 34, -47, 22, -48, 
  4, -51, -56, -35, 33, -2, 55, -35, 58, 36, 40, -19, 41, 1, 32, -42, 62, -31, -11, -6, -28, 49, 23, -48, 47, 44, -36, -32, -44, 53, -25, -14, -14, -17, 13, -3, -3, 42, -3, 31, -47, 30, -44, -50, 20, -31, 43, -7, -5, 2, -59, -4, -15, -22, -7, 0, 12, 2, -54, 42, -61, 43, -36, -44, 16, -22, 66, 4, 59, -31, -27, -42, 16, 30, 41, -23, 19, 42, 42, 46, 1, 12, 7, 52, 28, 49, -37, 41, 34, -23, -38, -37, 31, -50, -2, 44, -24, 12, 22, -53, 52, 
  -51, -32, -31, 43, 14, -54, 7, 0, 46, 50, 37, 41, 47, -1, -15, 1, 60, -55, 58, -24, -26, 42, -25, 53, -26, 1, -50, 47, -3, 37, 48, -58, 24, -4, -50, 0, 33, 10, -54, 28, 8, 43, 48, -11, 30, -56, -18, -34, 51, -14, 24, -43, -42, -29, -56, 60, 0, -42, 25, -22, -46, -47, -16, -2, 36, -23, 36, 43, 24, -61, -23, -47, -7, -26, 24, -19, 50, 34, 33, -54, 43, 35, 9, -33, -35, -51, -55, 17, 24, 11, 25, 57, -10, 6, -58, 8, 41, 14, 47, -43, 23, 
  47, 49, -60, -62, -4, -60, 21, -61, -59, -50, 23, 17, -39, 29, 12, 25, -43, -60, -46, 28, -10, -24, -5, -49, -20, -37, 34, -3, 21, 60, -16, 25, -30, -18, -14, -10, -36, 2, 64, 52, -3, -17, -41, 44, 52, 39, -15, 4, 24, -56, -9, 21, -30, -19, 47, -12, 12, -19, 11, 22, 11, 22, -16, 33, -64, 4, 11, 37, 49, 37, 53, -19, 43, 48, -23, -27, -37, 21, 43, -12, 39, 5, -35, -9, 8, 0, 62, 5, -48, -17, 11, 18, 25, -14, 68, 3, -27, 11, -11, -41, 61, 
  27, -21, 16, -21, 31, -26, -26, -45, -43, -23, -15, -13, -49, 11, 7, 53, 41, 43, -27, -16, -29, 10, 39, 48, -56, -28, -55, -56, 36, -56, -43, -11, 47, -33, -44, -21, 57, -36, 44, 10, 3, 15, 43, -10, -12, 12, 6, 14, 0, 42, -38, -47, 12, 5, 29, -31, 34, -57, 33, 40, -55, -34, -34, 15, -50, 59, 6, -24, 55, 54, 8, -33, 38, -49, 49, -18, -49, 40, -23, 14, -44, -5, -11, -7, 52, -49, 7, -57, -11, 57, 15, -2, 25, -16, 35, 42, 44, 3, 43, -57, -59, 
  -13, 48, -42, -46, 15, 0, 7, 6, -30, -10, 35, 32, 2, -17, 19, -41, 55, -29, 38, -10, 55, -28, 62, 31, -6, 39, -24, 50, 8, -9, 58, 47, 14, -1, 3, 36, 39, 33, 33, -36, -39, 17, 59, -37, -7, 12, -30, 0, -45, -51, -48, -35, 10, -50, 45, -8, -30, 49, -15, -39, 26, -52, 55, 19, -45, -35, -17, -6, 35, -22, 19, -47, 21, 11, 25, 12, -50, -46, -54, 12, 18, -28, 38, -17, -57, -58, -20, -51, 42, -36, 42, 19, 30, 56, 3, -60, 51, 49, 53, 8, 23, 
  10, 48, 25, -14, -56, -18, -32, 50, -17, -26, -51, 47, -57, -14, -24, -24, 25, 49, 21, -8, -13, -21, 61, -56, -13, 53, 53, 30, -32, -57, 43, -29, 43, 4, 28, 52, -3, -15, -54, 48, 19, -50, -55, 51, 29, 45, -27, 59, -59, -27, -30, 49, 37, 9, 30, -46, 21, -36, -21, -48, 8, -42, 54, -37, -54, -9, 49, -10, 54, 32, 60, 51, -27, -13, 50, -1, 36, -43, -50, -25, -5, -32, 42, -15, -34, 2, 37, 54, -49, 16, 40, -22, 36, 44, 2, 55, -36, 36, -25, -24, 4, 
  12, -24, -56, -43, -38, 15, -44, 45, 31, -44, -10, -33, 64, 63, -39, 17, -48, -46, 37, -54, -43, 33, 24, -56, -53, 5, 2, 45, 71, 42, 81, -20, -2, -15, 35, 32, 71, 15, -31, 40, 12, -13, 27, 51, -70, -66, -49, -63, -66, -31, -11, 51, 30, 45, -47, 36, 9, 23, 40, -41, -44, 31, -41, -25, -51, 34, 8, 4, 1, -49, -21, -42, -15, 26, -29, 6, 37, -62, 41, -38, 44, 54, -12, 11, 8, -60, 31, -5, 10, 51, 12, -5, 49, 39, -23, -65, -66, 40, -23, 11, -44, 
  3, 41, 25, 23, -23, -12, 30, 6, -38, -50, 34, 40, 40, 4, -40, -21, -3, 10, 49, -38, 67, -15, 38, 68, -31, -24, -30, -42, -56, -64, 34, 53, 32, 10, -54, -59, 2, -37, 32, 2, -4, -53, -46, -15, -47, -33, 55, 50, -32, -65, 41, 41, 9, -36, 15, 34, -36, -67, 32, 45, -68, -4, 5, 43, 47, -48, 43, 2, -50, 20, 15, 30, 67, -33, -30, 54, 27, -15, -51, 65, 53, 18, -9, -48, -22, -7, 13, 53, -32, -38, 29, 44, -54, -60, 23, -38, 23, -3, -47, -12, 55, 
  3, -21, 3, -51, -36, -52, 16, -24, 58, -7, 60, -6, 66, -18, 48, 46, 69, 0, 35, 3, 56, -9, -29, -36, -35, -37, 49, -40, 9, 25, -33, 54, -42, -59, -54, -55, -45, 48, -29, 31, -6, 45, -8, -30, 26, -33, 19, 14, 41, -22, -35, 14, 20, -29, 2, 36, 8, 49, -56, -7, 1, 45, 28, -41, 31, -41, 54, 29, 41, 64, -51, 2, 4, 8, -3, -4, -49, 59, -38, -20, 11, 6, 20, -27, -10, -41, -5, 20, -57, 30, -70, 22, 45, 5, 42, -13, 18, 13, -12, -40, -8, 
  14, 32, 48, 30, -26, -46, -21, -27, -11, -39, -8, -68, -89, -102, -48, -86, -42, -54, -33, -57, -87, -13, -75, 22, 14, -36, -54, -30, 76, 8, 88, 105, 105, 12, 48, 36, 80, 116, 45, 98, 57, 60, -40, -43, 15, -2, -42, -8, 4, 5, -51, 58, 48, 41, -53, -11, -12, 58, -17, 6, -35, -23, 47, -14, -21, 53, 27, 16, 2, 64, 4, 33, 13, 32, 2, -39, 19, 25, -8, -9, 6, -43, 6, -12, -14, -7, -27, 71, 70, 34, 32, 41, 46, -68, -49, -70, 9, -59, 3, 10, -95, 
  -6, -39, -14, -5, -13, 69, 38, -37, -11, -30, 31, 25, -34, 55, 8, -34, -23, 51, 23, -1, 34, 57, 46, 18, -25, 20, 13, 17, 40, 35, -20, -2, 22, 29, -50, 22, -37, -34, 27, -48, -12, -36, -68, -35, -86, -18, 34, 10, -30, -54, -15, 19, 44, 35, -21, 10, -57, 11, -47, -46, 25, 13, 57, -5, -11, -11, -69, -48, -70, -41, -34, -34, 42, 2, 42, -19, -22, -14, -18, 50, -1, 39, 38, -21, 56, 43, -22, -31, -22, 22, -6, -73, -56, -86, -25, 0, 34, 21, 46, 17, 44, 
  -67, 13, -27, -52, -3, 30, -5, -11, -57, 39, 47, 57, -37, 69, -1, 22, -34, 33, 34, 36, -15, 17, -31, 13, 5, -5, -48, -15, -80, -55, -55, -18, -19, -86, -4, 17, -23, -50, 0, -86, -66, -62, 41, -10, -67, -62, -16, 16, -7, -39, 10, 48, 56, 0, -8, 36, 10, -17, -39, 27, -2, -62, 24, -39, 1, 22, 52, 23, 18, -45, -32, -36, -15, 42, -3, 49, 15, 22, -25, -63, -35, -9, -15, 9, -48, -27, 50, 4, -50, -3, 59, 6, -37, 41, -10, 14, 62, -19, -50, -2, -34, 
  27, -48, -7, 38, 34, -68, 41, -4, 38, -47, -26, -16, -11, -45, 11, 37, 29, -62, -39, 11, -30, 49, -14, 50, 45, -25, 63, 12, 7, 35, 55, 64, 44, 72, 12, 15, 10, -34, -19, 26, 43, -15, 51, -45, -22, 23, 37, 39, -26, 56, 3, -29, -40, -6, -37, 7, 27, 13, -28, -41, -41, 21, 50, 2, 38, 38, -29, -4, -33, 30, 63, 67, -4, 57, 65, 54, 12, 9, -26, -15, -55, -63, -41, -90, -71, -60, 27, -18, -52, 50, 12, 28, 55, -31, 43, 60, 31, 1, 12, -41, 64, 
  -55, 43, -51, -4, -12, -27, 40, 48, 51, -37, -41, -6, -35, 13, 56, -27, 19, 50, 15, -15, -50, 2, -47, -13, 5, 14, -5, -25, 19, 15, 4, 61, -38, -31, 39, -11, -2, -27, 5, -10, 28, -27, 40, 29, -25, 12, 32, -58, -56, -56, -56, 24, 11, 54, 34, -22, 45, -38, -51, 32, -12, 17, 39, 12, -58, -11, -18, -35, 58, 59, 54, 15, -41, 30, 59, 50, 30, -26, 40, 31, 41, 13, -21, -60, -50, -2, -56, -37, 26, 39, -29, -20, -5, 56, -27, 16, -8, -5, 8, -56, 27, 
  53, -44, -10, 22, 50, 38, -56, -10, -40, 0, 45, 27, 19, 46, 38, 15, 30, -9, -18, -36, -17, -46, -6, 30, -20, -37, 60, -45, -46, 21, -35, 20, 55, -16, 42, -14, -8, 9, -52, 13, -49, 62, 20, 29, -45, -36, 66, -3, -10, -57, -35, 36, 7, -26, 14, -46, -8, -42, 45, 12, -58, -18, -5, -5, -34, 60, -23, 40, 65, 33, -49, -3, 27, 53, -17, -7, -15, 63, 2, 26, -45, -11, -19, 14, -49, 53, -35, 12, -24, -55, 3, 3, 43, -1, -1, 16, 53, 44, 29, 13, 4, 
  6, -3, 58, 44, 59, 28, 24, 73, 18, -5, -1, 61, -34, -12, 15, -30, 84, -12, 10, 49, 46, 62, 5, 59, 69, -11, 11, 42, 49, 73, -17, -4, -12, -5, -32, 54, 21, 51, -7, -42, -35, 11, -37, 10, 48, -4, -28, -2, 49, 71, -50, -48, 34, -1, -33, -46, 50, -44, -68, -58, -43, 51, 38, -15, 45, 30, 46, 20, 27, -35, -42, 60, 32, 69, 70, -35, 66, -19, 55, 11, -24, -18, -11, -87, -87, -88, -72, -29, -19, -69, 12, -21, -21, -35, 15, -67, -52, -71, -24, -37, 4, 
  61, -39, -11, -31, -53, -5, 21, 11, -21, -29, 15, 22, -9, 21, -22, -58, -36, -16, -31, -36, 12, 18, 18, -31, -23, 16, -5, -1, 65, 73, 39, 44, 28, -28, 46, 69, 38, 47, 17, 48, 6, 55, 13, -32, 70, 9, 11, -31, -40, -60, 40, 21, 50, -39, 16, -51, -17, 23, -21, 10, 50, 22, -49, -8, -34, 28, -44, -58, -58, -33, 24, 61, 51, 54, -32, -50, 2, -57, 33, 8, -10, 18, 23, -39, 36, -44, -5, -10, 22, -28, -53, -2, -19, 15, 8, 38, 45, -36, -63, -61, 45, 
  -13, -8, 32, -36, 26, -29, 42, -12, -12, -11, 52, -37, 25, -47, 59, 16, -45, 53, -31, -1, -18, -34, 25, 32, 7, 28, -60, 59, -20, -58, -17, -57, 60, -44, -10, -39, 59, 48, 39, -54, -16, 4, 21, -40, 9, -44, -40, -11, -29, -1, 40, 11, -71, 5, 28, 42, 33, 33, -30, 34, -47, 27, 21, -45, 14, -2, 49, -10, 34, 47, 6, -29, 47, 30, 62, 41, 66, 6, 41, -1, 49, -3, -46, 12, 30, -42, -10, 31, 14, 9, -12, -33, 0, 44, -41, 48, -25, 49, 33, 22, -2, 
  22, -15, -49, 9, 32, -56, -12, -65, -76, -28, -24, -49, 12, -58, 27, 35, -21, -12, -41, 28, -13, -30, 17, -61, 2, -22, -53, 14, 19, 52, -38, 79, 24, 60, 73, 57, 29, 87, 25, 18, -39, -7, 43, -5, 24, -49, 5, -20, 32, 39, 39, -65, 15, 27, 41, -18, -4, 46, -24, 17, -17, -23, -30, -10, -50, -28, 44, 37, -7, 76, -36, 61, -40, 11, 70, 28, 38, 14, 28, 48, -46, 13, -33, -47, 29, -12, -15, 4, -2, -50, -76, -6, -24, -30, -5, 5, 13, -6, -29, -42, 32, 
  -27, 44, 30, -35, 27, 40, 29, -34, -15, -41, 49, 7, 19, 1, -14, -33, -4, -37, -36, -45, -45, 0, -27, -23, 1, -46, 39, -52, 8, 46, -12, -61, 18, 7, 45, 41, 45, -42, -51, -41, 27, -30, -31, 14, -61, -1, 29, -49, 8, -56, 6, 42, -40, 36, -25, 22, 6, 7, 4, -40, -37, 45, 20, 32, 33, 37, -48, 28, -41, -42, 47, 66, -39, -11, 2, 36, 50, 51, -21, 30, 58, -18, -39, -49, -62, -9, 4, -48, 0, 22, 59, -15, -46, 65, -38, -32, -42, -31, -29, 26, 41, 
  -3, -63, -11, 6, 11, -57, 11, 22, -19, -15, 54, 42, -39, 31, -6, -62, 24, -17, 51, 15, -64, -24, -61, 0, -16, -47, 55, -16, -42, 18, -50, 18, 55, 42, -29, 23, 18, -28, 26, 27, -35, -16, 52, 42, 53, 38, 42, -41, 19, 33, 35, 0, 24, -18, 39, 20, -53, -30, 36, -61, -11, -17, 44, -30, 8, 30, -51, 43, 65, 54, 65, 39, -27, -19, -38, 17, -25, 27, 33, -6, -37, 38, 21, -17, 7, -65, -49, 45, 14, -65, -56, -24, 47, 36, 21, -52, 36, -17, -7, 28, -42, 
  70, -31, 56, 25, -49, 41, -43, 50, 46, -29, -70, -68, 32, -84, -60, 13, -59, -84, -47, -84, -61, -26, -43, -9, -43, 20, 42, 22, 25, 86, 12, 29, 54, 70, 117, 8, 33, 60, 48, -13, 60, 2, 9, 32, 1, -21, 16, -19, -49, 30, 1, -21, 3, -4, 18, -37, -11, -26, 35, 35, 54, -54, -50, 37, 27, 5, 65, -43, 14, 10, -55, 8, 7, -16, 32, 26, 56, -19, 13, -47, -32, 48, 0, 33, 35, 16, 2, -42, -85, -30, -68, -14, -9, -55, -16, -8, 16, 12, 2, -69, -81, 
  60, 13, -5, 17, 30, -39, 8, 24, 47, 30, -29, 26, 13, 24, 27, -62, 55, -28, 52, 43, -48, -18, 35, 51, -48, -4, 47, 15, 36, 24, -34, -16, 19, -33, -13, 8, -32, 4, -37, 2, -39, -70, -40, -75, 11, -6, -6, 8, -10, -29, -7, -13, -59, 43, -16, -47, -11, 30, -7, -10, 50, -22, -17, -54, 27, 29, -37, -35, -70, -55, 35, -70, -28, 32, -9, -72, 17, -34, 4, 2, 71, 68, 62, 20, 21, 65, 56, -25, 23, 8, 29, -2, -1, -4, -57, 25, -52, -21, 48, -4, -38, 
  -5, -43, -21, -49, 9, 21, -70, -32, -40, -37, 44, -25, 34, 11, 37, -8, 36, 55, -5, 12, -54, 0, 9, -34, -25, -44, -22, -26, 9, 31, 30, 14, 8, -24, 14, 8, 34, 31, -63, -6, -65, -52, -28, -29, 17, -23, 37, 37, 47, -8, 20, -39, -33, -58, 37, 44, 17, -15, 6, 49, 45, -58, -31, -10, 18, -13, 42, 45, -38, 60, 9, 28, 27, -22, 23, -49, 32, -56, 27, 30, 29, -51, -46, 31, 32, 8, -21, 24, 45, -55, -13, -27, -22, -3, 24, -41, -42, -38, 3, 4, 1, 
  -5, 3, 44, 26, -32, 41, 22, 42, -23, -41, 32, -42, -26, -5, 5, 32, -60, -24, 37, 45, 40, -1, -9, -5, -56, -63, -21, 8, -23, -21, -35, 26, 46, -46, 23, 14, -47, 15, 29, 36, -4, -48, 57, 12, 48, -13, 16, 56, -2, 37, -46, 55, -47, 24, -55, -10, 56, 57, -6, -59, -6, 45, -37, -45, -19, -22, 59, 14, 2, 13, 55, -33, 28, 17, 55, -3, 27, 39, 23, -38, 0, -53, 41, -40, -20, 21, 28, -43, -74, -38, -36, 33, -31, 20, -25, 1, -54, 8, -48, 6, -11, 
  54, 6, -6, 46, 51, -61, 36, 22, -32, 0, 44, 57, 49, 40, -30, 59, -55, 32, 20, 21, -5, 47, 54, 16, 32, 51, -17, -24, -42, -44, 57, 40, 26, 59, 39, -31, 20, -33, 39, -52, 36, 38, 31, -10, 27, -19, 57, 38, -54, -8, -52, -12, 19, -46, 12, -9, -13, -9, 41, -4, -28, -41, -44, -22, -10, 20, 53, -41, 26, -28, 54, 12, 62, 30, -9, -16, 54, -34, -10, -31, 3, -51, 25, -12, -7, 37, -13, -58, 56, -32, -55, 54, 16, -12, -32, -10, -57, -54, -26, -24, 19, 
  2, -51, 35, 14, 16, 8, 55, 2, -41, 22, 23, -2, 33, 1, 14, 40, -7, -1, 11, 71, 5, 66, -8, 60, 12, 60, 56, -42, -53, -56, -58, -2, -9, -2, -9, 12, -53, 30, 37, -55, -45, 60, -52, -26, 1, 31, -48, 17, -5, -54, -33, 11, 21, -3, 45, -5, 12, 33, 29, -65, -29, 44, 22, 2, -49, 17, 42, -36, 37, 26, 58, -2, -32, -15, -32, -25, 26, -18, -28, 61, -8, 51, 16, 0, -28, -34, -22, 2, 45, -37, -55, -60, 51, 33, 8, 19, -56, 58, -3, 28, 41, 
  9, 16, -74, -3, 32, 27, 38, 44, 6, -12, 24, -44, -60, -29, 15, -70, -52, 40, 7, 23, -24, -71, -56, -35, 25, 39, -47, 48, -64, 19, 52, -61, -42, 4, 58, -12, 11, -23, -27, -12, -10, 26, -66, -20, -14, 43, -58, -53, -4, -23, -19, 4, 42, 39, -25, 11, -48, 25, 36, -44, 35, -14, 23, -52, -66, -7, 6, -42, 20, -11, 3, -4, 61, -25, 11, -26, 0, -41, 45, 63, -8, 7, -27, -65, 47, 9, -36, -70, 14, 26, -16, 25, -58, -14, 47, 2, -23, 31, 44, -12, -13, 
  31, -62, 2, -14, -27, 40, 26, 10, 3, 58, 2, 51, 26, -30, 59, 45, 90, 29, 52, 40, 3, 24, 87, 54, -33, -4, -10, 53, -37, 33, -29, -66, -31, -49, -53, -84, -3, -8, -55, -81, -45, -71, -33, -9, 23, -1, 33, 22, 27, 26, -26, -40, -58, -4, 53, 55, 23, -41, -18, 30, -45, 17, -29, 59, 41, -27, -37, -39, -40, 67, 38, 11, 40, -52, 60, 35, 12, 2, -18, -8, 8, 28, -92, -94, -51, -44, -19, 29, 41, 20, -1, 3, 65, 66, 66, 2, 61, 57, 62, -38, 27, 
  13, -33, -38, 14, 30, 42, -14, -25, 2, 23, -45, 39, 12, 25, 14, 69, 40, -18, 1, 18, -38, -45, 23, 5, 57, 70, -38, 20, -39, -36, 13, -3, 1, -29, -28, -48, -37, 33, -47, 10, 11, -26, 57, 6, -33, -5, 64, 54, 38, -48, 12, -21, -59, -24, 6, -54, -16, -68, -26, -66, -3, 30, 38, -47, -37, -49, -37, 61, 40, 42, 55, -7, -37, -6, -42, 21, -25, -1, -21, -39, -20, 36, -23, 49, -20, -41, -44, -63, 49, -22, -69, -24, -34, -45, -20, -18, 5, 53, 45, -6, -14, 
  16, -36, 10, 6, -27, -35, 21, -9, -51, 41, 31, -39, 13, -51, 57, 21, 14, -22, 37, 35, 23, 51, -37, 59, 51, -29, -14, 34, 32, 9, -28, 36, 38, -14, 34, -55, -33, -13, 26, 34, 50, 7, -44, 10, 41, 25, -8, 19, 9, -44, -53, -13, -53, 2, -31, -7, -61, 38, 2, 15, -8, -2, -51, -2, 46, 1, 18, 27, -20, 6, 7, 44, -25, -12, -44, -29, -34, 54, 57, 0, 27, -38, -1, 1, 30, 13, -8, 16, -11, -16, 3, 45, -49, 22, -32, -26, 52, 56, -59, 7, -9, 
  53, 10, -22, 55, 16, -49, 52, -20, 18, -58, 43, -51, -36, 54, 53, -28, 55, 61, -39, -5, 2, 22, 20, -46, -37, -33, -12, 59, -7, -20, -3, -37, -52, -2, 25, -37, 49, 36, 26, 25, -16, -52, -14, -15, 10, 53, -42, -5, -27, -50, -28, -57, 22, 3, -12, 42, 54, 41, -58, -43, 27, 1, -41, 60, 38, -12, 33, 21, -34, 20, -3, -56, -50, 37, 3, 27, -19, 25, 8, 39, -65, -69, -19, -61, 35, 35, 16, 62, -21, 29, 2, -4, -11, 67, 42, 70, -45, 33, -8, -20, -3, 
  29, 43, -11, -20, 14, 13, -65, 18, 47, -9, -35, 6, 13, -31, -17, 35, -57, -37, 7, 17, 32, -69, -47, -15, -2, -59, 32, 36, 31, 3, 57, 10, -15, -35, 10, 40, 61, 34, 65, 62, -19, -15, -2, 21, -5, 22, 28, -68, 1, 0, 44, 26, -28, -31, 12, 19, -32, 46, 10, -47, -54, 18, -21, 44, 42, 59, -26, 32, -29, -5, -4, -30, 1, 46, -26, -48, 12, 3, -24, 10, 39, 24, 41, -6, -3, 39, 26, 50, 42, 8, -10, 19, 42, 58, -61, -27, 49, -47, 28, -7, 33, 
  -6, -7, 36, 54, 49, 54, -17, -54, 49, 4, -2, 48, -11, 41, -43, 55, -2, -14, 21, 61, -17, 61, -51, -34, -26, -10, -53, 0, 21, -51, 10, -15, -4, -8, -51, 13, -37, 4, 37, -50, -5, -27, -19, -18, 1, -34, 24, -41, -54, -5, -28, 28, -45, -39, -19, 23, -45, -56, 10, -39, -11, 28, 47, -60, 16, 53, 52, 43, -39, -3, -11, 29, -42, -59, 35, 13, -58, 34, -25, -34, 50, -21, -24, -62, 9, 28, 48, -40, 0, 40, -33, 48, -48, 14, -42, -30, -42, -26, 43, 47, 29, 
  -24, 49, -36, -26, 20, 29, 52, -10, -31, 4, 42, -9, -33, -27, -1, -21, 35, -26, 34, 14, 35, 50, 41, 28, -14, 62, 13, -20, -1, 50, 30, 53, 21, 8, -4, -36, 54, 49, 50, 20, -7, -13, -49, -19, -51, -45, -7, -7, 16, -5, -34, -13, -41, -59, -29, 28, 45, -43, -35, -62, 29, 25, -24, -10, -7, 7, -47, 43, -30, 6, 38, -7, 13, -56, 33, 6, 41, -53, 30, -3, -50, 29, -30, -18, 19, 18, 9, 35, 55, 50, 8, 5, 5, -33, -12, -47, -30, 52, -29, -33, 37, 
  57, -53, 28, -34, -49, 1, -16, -13, 37, -33, -46, -21, -47, 43, 4, -47, 18, -3, 47, 17, 1, 21, -9, -38, -43, 52, -29, -29, -17, -16, 47, -52, 14, 50, -45, 57, 58, 6, 22, 4, 29, -38, -38, -15, 58, 25, 44, 26, -10, 15, -61, -11, -11, 15, 16, -16, -15, -58, 58, -40, -50, 25, -7, 42, -14, 3, -52, 17, -4, -29, 46, -22, -50, -9, 33, 14, 29, 27, 14, 50, -54, -19, 20, -36, 45, 46, 47, 23, -6, 6, -28, 25, -32, 19, -28, -37, -36, 22, 34, 20, -54, 
  -34, -27, -68, -22, -45, -17, -30, 7, 26, 47, -5, -52, 42, -22, -43, -48, 37, 21, 12, -32, -17, -33, -27, -1, 23, -41, 45, 35, -2, 19, -4, 43, -9, -32, 68, -33, -13, 81, 46, 57, 63, 52, -50, 45, 0, 44, 35, -12, -44, -74, 5, 23, 24, 40, 34, 33, -68, -7, 30, 37, 21, -77, 41, 20, 20, 22, 63, 58, -32, 17, 71, -21, 52, -46, -27, 2, 54, 69, 29, 33, 33, 54, 25, -42, 5, -47, -18, -55, -50, 40, -10, -22, 37, 43, -8, -36, 9, -10, -38, 4, 25, 
  -16, 25, -60, 44, 28, 32, -40, 38, 38, -37, 15, 51, -6, 25, 52, 11, 19, 20, 56, 55, 5, 33, 39, 52, 34, 22, 0, -20, 33, 9, -42, -42, 0, 3, -4, -48, -5, 22, -11, -42, -45, 52, 37, -38, -11, 19, -10, -45, 23, 10, 47, 14, -44, -15, 37, -56, -49, -41, -59, 42, 57, -10, -31, -22, 57, -47, -21, 14, 12, -13, -54, 45, -50, 18, 60, 30, 48, 30, -41, -1, 54, 57, -35, 32, -38, -21, -31, 47, -56, 58, 16, 20, 5, 9, 57, 43, -12, -54, 11, 0, -56, 
  -32, -24, 1, 42, -71, -30, -60, 10, -11, -3, 13, -59, -18, 46, -69, -60, -58, 18, 27, 48, -31, -51, -40, 8, -31, -4, 29, 43, -39, -44, -15, 17, -10, 18, -46, 34, -29, 52, -40, -11, 2, -24, 51, -57, -52, 25, 42, 53, 32, -43, -12, -63, 34, -22, 58, -50, -58, 43, 10, 36, -21, 38, -20, -21, 2, -15, 11, 30, 32, 10, 13, -15, -52, 19, 56, 34, 19, -17, 5, 9, 19, 22, -3, -36, 23, 0, 9, 44, 46, -28, -6, -19, -5, 25, 65, -19, -22, 70, -22, 2, 71, 
  36, -38, 10, 30, -20, 34, -4, 43, 36, -46, 24, -28, 17, 55, 76, 57, 18, -11, -21, 3, -45, -40, 61, -54, -56, 45, -43, -43, -54, 20, 0, 0, -86, 7, -22, -1, -52, -50, -54, 38, -34, -53, -32, -23, -1, -18, -30, 43, -61, 49, -41, 15, -2, 43, -32, 43, -31, 17, -19, -1, 16, 10, 16, 11, 24, 38, -47, 17, 27, -2, 37, 15, 5, 32, -15, -51, 21, 10, -19, 38, -41, 51, -14, 51, 36, 25, -6, 6, -21, -31, 53, -44, 0, -27, 17, -29, 28, 57, 51, 55, -1, 
  1, -47, -35, 8, 9, -41, 44, -5, -29, 17, 21, 44, -40, 6, 32, 4, -11, -22, 7, 50, -43, -5, 18, -39, 50, -39, 56, -27, 43, -21, -14, -17, 81, -30, -8, 56, 5, 13, -33, 4, -19, 29, 33, 14, -31, 4, -20, 57, -24, -19, 9, -6, -51, 38, -29, -13, 32, -4, -9, -38, 7, 50, -19, 36, -42, -33, -41, -29, -5, 26, -23, -14, -52, -50, -13, -18, 13, 47, 52, 3, 30, 56, 49, 23, 73, -20, -37, 38, 55, -18, 33, -28, 23, 39, -1, -57, -44, 53, -10, 50, -59, 
  -23, -26, -55, 23, -53, -36, -19, -12, -8, 71, 54, -33, -18, 32, 58, -17, -23, 13, 67, 33, -44, -21, 15, -33, -4, 22, 1, -8, -59, -21, -16, -45, 4, -41, -34, -49, -53, 54, 52, 43, 52, -17, 60, -24, 24, 34, 44, 12, 59, -36, -14, -12, 58, 20, 44, -17, -38, -60, 53, -17, 50, -48, -12, -57, 21, -58, 13, -53, 35, 42, 55, 53, -12, 73, 53, 12, 57, 46, 66, 78, 18, 17, 9, 52, 27, -17, 21, -33, 14, -47, 48, -27, 47, 32, -38, 44, -44, 49, 63, -21, 27, 
  0, -41, 23, 34, 27, 30, -3, 30, 20, 59, -43, 30, 65, -41, 3, 54, -1, 41, 50, -9, 62, -8, 41, 14, -25, -38, -29, -74, -58, -68, -57, -84, -33, -35, -101, -5, -81, -43, -8, -40, -48, -63, -70, -49, -60, -30, 11, -33, -23, -7, 7, -51, -31, -20, 49, -16, 38, 45, 5, 37, 36, -14, 31, -70, -49, 17, -16, 62, 21, 50, -43, 42, 55, -34, 20, -26, 58, -9, -48, 38, -57, 53, 16, -14, -62, -45, -13, 54, 40, 59, -63, 58, 7, 8, 56, 26, -2, -32, -22, 1, 20, 
  -1, -2, -17, 55, 11, 38, 55, 37, 54, 17, 7, 25, 57, -27, -31, -31, 64, -54, -39, 7, -54, 16, -23, 3, 5, 23, 8, 46, -50, 49, -33, -27, -71, -22, 43, 34, -15, -19, 46, -39, 51, 14, 15, 6, -37, -47, 36, 1, 39, -35, 38, 32, -44, -8, -59, -60, 58, -21, 11, 38, -12, 51, 13, -15, 4, -29, 52, -3, 17, -25, -17, -9, -12, 38, -53, -50, 44, -37, -35, -16, -8, 36, -30, -46, -43, -12, 10, -8, -34, -21, -26, 31, 6, 47, -33, -2, 35, -47, -38, 52, -29, 
  -57, 49, -55, 21, -32, 51, 46, -61, 25, -36, 20, 16, 4, 27, -18, 30, 39, -53, -30, -56, -4, 27, -22, 18, -57, 20, -66, 15, -45, -9, -33, -63, 12, 32, 21, -19, 27, 49, -28, 36, -21, 43, 37, 27, 44, -27, 4, 21, -51, 49, 57, 37, -36, 51, -56, 51, -58, 54, -37, 38, -24, 3, 15, 32, 32, 22, -7, 0, 53, 53, 27, 40, 41, 45, -1, 44, 15, 11, -18, 27, -49, -66, 33, 32, -49, 0, 49, 20, 22, -43, -6, 42, -5, 26, 42, -8, 39, 24, -42, -51, 1, 
  33, -46, -37, -43, -24, -59, 53, -63, 13, 49, -45, -36, -10, -59, -9, -60, -74, 1, 4, -2, -65, 34, -72, -57, -10, 26, -48, 35, 22, -2, -26, 31, -38, -31, 20, 43, 48, 4, 6, -51, 19, 14, -16, -22, -61, -4, -18, 48, -47, -56, 50, 40, 17, 45, -54, 3, -30, 14, -13, 25, 41, -49, 42, -18, -34, -44, 53, 2, -26, 18, -51, 61, -50, 28, -31, -19, 3, 26, 61, -40, -43, 22, 11, -9, -69, 36, 38, -11, -25, -68, 9, -25, 18, -35, 4, -44, 8, 55, -23, 49, 26, 
  -71, 42, -14, 42, 10, 43, -3, 36, -26, -1, -20, 2, 55, -19, 43, 66, 7, 37, 3, 74, 35, 46, 7, 58, -24, 31, -42, -51, -1, -61, -61, -16, -25, -17, -21, -76, 24, 28, 44, -40, -47, -50, 16, 19, -19, 54, 21, -52, 60, -12, 43, 43, -39, -46, 8, -27, -41, 49, 29, 30, -20, -29, -17, 46, 20, 0, -56, -7, 6, 15, 4, 45, -20, -42, 27, 46, -7, -18, -8, -21, 42, 47, 32, 40, 39, 35, 5, -45, -11, -53, -44, -60, -55, 26, -45, 0, 34, 9, -59, -34, 54, 
  -66, -51, -70, 15, -29, -65, -87, -109, -75, -35, -91, -98, -101, -112, -87, -89, -81, -3, 15, 24, -33, 6, 29, -6, 38, -62, -38, 58, -45, -18, 43, 44, 35, 22, 77, -33, 27, -33, 35, 36, -17, 33, -51, 30, -17, -23, -27, -61, 8, 51, -39, -53, 31, -18, 13, 7, -20, 58, -3, 54, -62, 11, -25, -11, 27, -11, 49, -35, 37, -27, 75, -10, 34, 13, 8, 4, 6, -58, 47, -41, -41, -71, -97, -30, -101, -38, -11, -39, -41, -13, 52, -9, 24, 30, 58, 31, -7, -10, -59, 52, 11, 
  -50, -20, -28, -29, 31, -56, -56, 43, 11, 5, 35, -43, -31, -13, 47, -18, 64, 13, 58, 47, -6, 64, 63, -4, 17, 14, 44, -43, 37, 47, -51, -34, -40, -23, 54, 9, -38, -18, -27, -45, -48, 35, 45, 66, 46, 67, -54, -49, -10, -51, 48, 55, -21, -38, -8, -22, -3, -54, -8, -59, -46, -11, -10, -12, -43, 17, 7, -42, -4, 18, -17, 24, -11, 44, 8, 39, 16, 30, -18, 29, -20, -4, 36, 39, -61, -27, 37, -39, 3, -44, 21, 18, 27, 44, 39, -13, -16, 24, 44, 26, -3, 
  13, -23, -64, -4, -16, -18, -11, -24, 20, -50, -8, 8, 3, -49, 22, 22, 7, -24, -22, 39, -6, 21, 37, 25, -27, 29, -56, -56, -4, 34, -4, 69, 12, -36, 81, 63, -9, -33, 10, 41, 45, 44, -44, -34, 2, 9, -23, 33, -2, 15, 55, 51, -62, -20, -23, -13, 13, -41, -2, -42, 52, 14, -11, 31, 43, 53, 12, -43, -48, 59, -36, 53, 11, -41, 23, -50, -17, -41, -49, -38, 16, -51, 48, 24, 15, 27, 51, -21, 58, 50, -35, 46, -22, -48, 55, -50, -14, -44, 18, -36, 0, 
  -7, -73, -25, 44, -2, -58, -4, -5, 15, -11, 10, 27, 50, 10, 44, 31, 77, 60, -14, 26, 2, -22, 12, -7, -7, 3, 42, 30, -70, -34, -10, 0, -25, -44, -3, -64, -3, -79, -67, 9, -29, -1, -15, -38, -44, -30, -37, -33, -58, 38, -53, 10, 48, 9, 3, 28, -13, 33, -4, 45, 0, 28, -45, -25, -3, -39, 3, 28, -22, 18, 29, -29, 55, 30, 7, -39, -2, 9, 23, -34, -27, -22, -76, -31, -51, -29, 29, 22, -21, 13, 38, -35, -14, -18, 23, -50, 19, 57, 6, -16, 61, 
  -5, -31, -59, 25, -69, 38, 12, 19, 21, -54, 53, -23, -54, -25, 17, 73, -14, 69, 11, 3, 22, -46, -21, -42, -13, 53, 58, -19, 61, -13, 6, 27, 26, -26, 51, -23, 20, 1, -42, -54, -42, 59, -2, 43, 2, -43, 49, 51, -32, 38, 10, 35, 13, 46, -72, 18, -8, -31, 43, -40, -5, -23, -40, -49, 29, -29, 12, -7, 39, -50, -3, -39, -9, -19, 20, 13, 12, 52, 6, 42, 67, -53, 29, -4, 40, 5, -60, 45, -72, -8, 43, 47, 7, 37, 35, 23, -38, 56, 43, 57, 64, 
  0, 7, -8, 19, -3, -19, -41, -54, -58, -49, -16, -32, -18, 46, -22, 19, -46, -25, -43, -64, -48, 21, -19, 39, -4, 4, 24, -10, 38, 9, 9, 92, 67, 81, 13, 10, -8, 44, 90, 79, 84, 19, -24, 29, -39, 3, 0, 55, -9, 32, -3, 23, -25, 49, -44, 6, -29, -48, 22, -9, 2, -17, -1, -55, -60, 34, -12, -23, -68, 3, -45, 14, -39, -63, -57, -15, 32, -7, 47, -21, 73, 71, 68, 45, 50, -40, 52, -5, -4, -44, 0, 4, -7, 48, -54, 8, -56, -30, -64, -14, -77, 
  -35, -33, -47, -62, -16, 14, 50, 0, 46, -33, -58, -65, -2, 27, -1, 37, 19, 39, 65, -44, -35, 21, 70, -32, 58, -19, 28, -9, -6, 22, 61, -14, -13, 64, 25, 56, -18, 1, -42, 25, -10, 12, -71, 25, 42, -20, 7, -8, 1, -21, -46, -17, -14, -20, -36, -16, 36, -35, 7, 33, 23, 3, 27, 41, -30, 47, 63, 51, 52, 63, 75, 57, 40, 56, -39, -13, -21, -56, 25, -24, -47, -63, -91, -106, -9, -62, -67, -64, -11, 15, -18, 34, 46, 60, 11, 21, 49, 67, 40, -20, 3, 
  9, 15, -6, -31, -33, -61, -42, -12, 34, -27, 37, 25, 32, -27, 9, -28, -39, 26, -44, 17, -53, -50, -62, 46, 17, -14, 14, -44, -12, 24, 14, 45, 9, -56, 4, 36, 56, -36, -3, 24, 33, 22, 3, 3, 52, -56, 50, -29, 27, 48, 52, -17, -31, 33, -13, 23, -49, -42, -4, -2, 8, -14, 13, -24, 23, -27, 70, -11, 65, 21, 20, 54, -7, -39, -26, 43, -36, 11, -47, -35, -31, -8, 35, -16, 32, -43, 9, -8, -53, 37, -52, 51, 25, 50, -26, -5, -18, -14, -21, 38, -25, 
  14, -36, -25, 2, 47, -51, -8, -46, 42, 30, -22, -57, -5, -35, -6, 5, 2, -15, -58, 25, 19, -30, 18, -29, 5, -58, -58, 45, -22, -21, -60, 35, 42, 35, -15, 60, 43, 6, 21, 45, -52, 63, -29, 62, -5, 37, -5, -23, 15, -14, -8, 28, -60, 41, 44, 24, -26, -8, -13, -12, -60, -57, -57, 9, -8, 29, -43, -40, 46, -51, -58, -23, -21, 61, -58, 18, -14, 28, 28, 35, -60, -49, 46, 8, -31, -21, -20, -17, -29, 40, -2, 58, -57, -26, -36, 51, -49, -7, -30, 20, 46, 
  13, 28, -15, -37, -30, -11, -15, 52, 63, -9, 6, 38, -48, 44, 45, -39, 40, 40, -50, 20, 53, 34, -27, 3, 41, 43, 67, 49, 38, -2, 62, 11, 49, -9, -41, 39, 42, -37, 9, 47, -27, -40, -76, -49, -82, -42, -56, -9, -47, 13, -53, -57, 23, 0, -23, -22, -42, 1, 48, -25, 46, 9, 25, 63, 61, -13, 43, 3, -26, -1, -4, 3, -21, -43, -64, 35, -63, 38, -3, -21, -29, -59, -6, -55, -33, 64, 13, 58, 22, -14, 72, -22, 36, 76, 19, 34, -16, 7, -16, -28, 68, 
  40, 13, -16, 17, 59, -40, -32, -36, 26, 13, -26, -14, 40, 14, -46, 5, -14, -41, -47, 11, 27, 55, 8, -8, 60, -19, -4, 28, -9, -54, 4, -27, 9, 46, 29, -32, 22, 68, 18, 62, -43, 61, 10, 20, 64, 27, 35, -20, 35, 7, 17, -19, -11, -1, 11, -36, -29, -28, 32, 38, 20, -13, -15, 24, -6, -30, 28, 36, 58, -43, 37, -25, 16, 48, -52, 50, -15, -32, 30, -46, 5, 16, 31, -18, -28, -7, 18, -3, -57, 44, 24, -60, 28, -20, -9, -60, 54, -37, -36, -37, -7, 
  26, -54, 22, -3, 12, -60, -1, 11, 29, 5, -65, 41, -69, -33, 15, 32, -74, 19, -8, -51, -63, -33, 47, -66, 19, -40, 11, -17, 16, -47, -26, -7, -23, 38, -43, -56, -11, -39, -23, -9, 44, -9, 43, 19, 14, -45, 22, -27, 27, 4, -31, -19, -47, -9, 26, -38, 6, 54, 31, 28, -29, 25, 9, -30, 35, 54, 1, -12, -31, -29, 57, 9, -16, -8, -29, 14, 11, 67, -21, 40, 11, -32, 61, -20, 8, 21, 4, 38, -15, -1, 57, 20, 9, -53, 45, -20, -15, -24, 60, 48, -11, 
  -33, 47, -24, 23, -13, -14, 36, 9, -31, -30, 56, -18, -57, 39, 32, -56, 7, 45, -16, -32, 45, -8, 36, 53, 27, 55, -13, 14, 36, -43, -1, -41, -33, -14, 8, -40, 28, -5, -18, 58, -35, -37, 43, -45, -10, 1, 41, 6, -31, -56, 49, -5, 15, 28, -58, 2, -43, -38, 21, -45, -38, -35, 9, 53, 19, -17, 1, 58, 44, -26, 5, 26, 30, -44, 39, -26, -49, -43, -22, -37, -9, 21, 29, 46, 14, 61, 15, -44, -4, -3, -46, 62, -5, 14, 10, 44, -43, 2, -26, 13, 14, 
  -1, 52, -58, -21, -11, -15, 41, 2, -16, -31, 51, -4, 40, -18, -42, -25, -35, 26, 23, 7, -19, 55, 47, 53, -33, 38, 36, 67, -40, 71, -4, 38, -7, 56, 46, 19, -27, -27, 6, 29, 35, 11, 18, 2, -23, -1, -2, 45, -24, -33, 34, 19, 22, -49, 59, 28, -33, -45, -45, -46, -4, 12, 40, -22, -39, -10, -9, -70, 35, 18, -42, -3, -28, 3, -60, -45, -22, -20, -31, -59, 50, 36, -14, 63, 67, 11, 53, 56, 32, -36, 31, 12, 31, 42, -26, 56, -19, 37, 0, -17, -2, 
  0, -40, -22, 38, 51, -42, 39, -35, -20, 23, -56, 59, 42, 3, 57, 24, -32, 65, -50, 45, 4, -44, 51, 2, 15, 49, -17, 11, -64, 27, 7, -62, -50, -71, -42, -24, -31, 12, 40, 8, -11, -33, -11, -29, -32, 3, 11, 26, 21, 38, -17, 20, -21, 35, -5, -42, -1, 23, -12, 23, 18, -58, 12, 58, -16, 23, -41, 31, 48, 43, 9, 36, 21, 39, 58, 10, 57, -2, -1, -10, -21, -70, 8, -23, -20, 19, -18, 44, -20, 15, -51, 12, -12, 49, 36, 26, -24, -42, 36, -24, 1, 
  18, -49, -43, 8, 35, -8, -42, 27, -36, -33, 42, 0, 17, -34, 62, 33, -54, 19, -22, -28, -47, -15, -8, 53, 61, 42, -9, 81, -4, -2, 55, 61, 48, 55, 36, 10, 20, 56, -52, 41, -75, 3, -69, -30, 10, -40, -65, 41, -24, -6, -63, -2, -26, 16, 46, -55, -27, 22, 33, 51, -35, -32, -14, 16, 8, -17, -68, -67, -37, -51, -61, -39, 13, -49, 51, -52, 46, -19, -9, -22, 42, 38, 61, -1, -4, -12, 1, 6, -38, -71, -11, 20, -63, 9, 39, 0, -1, -49, -37, 42, 59, 
  -2, -1, 28, 29, 43, 13, 39, 15, 56, 26, 54, 8, 21, -4, -50, 65, -35, -43, 11, -13, -45, -55, -1, 13, -47, 30, 2, 40, -29, 51, 30, 7, 12, -24, -24, 5, -34, -57, 24, -12, -66, -58, 39, 16, -38, -3, -50, -27, 28, 17, -7, 7, 32, -22, -57, 6, -10, -43, 21, 3, 17, 39, -42, -60, -23, 32, -56, 57, -7, -34, -23, -39, 20, -41, -20, -6, 43, 47, 36, -12, -12, 25, 31, 55, -40, -4, -28, 50, -1, 52, 37, 29, 2, -58, -47, -55, 40, 7, 47, -42, 11, 
  -47, -10, 54, -52, 38, 17, -53, 53, 24, 15, 4, 36, 19, -62, -33, -61, -36, 25, -61, 29, 9, 37, -38, -27, 41, 48, 42, 36, 11, -30, 25, 48, -12, -57, 4, 19, -28, 37, -53, 1, 16, -51, 41, -46, -35, 57, -30, 58, 17, 1, -14, -60, -63, -25, 33, -15, -52, -25, 27, 7, -55, 10, -23, -6, -28, -36, 0, -55, -39, -13, -56, 15, -48, 39, -55, -15, -26, -31, 52, -62, 37, -20, 34, -62, -6, -38, 56, -63, -62, 56, -47, -33, -52, -11, -5, 21, 27, 60, 53, 58, 30, 
  41, -41, -51, 35, 33, -50, -51, 32, -31, -9, -37, -30, 72, 47, 53, -11, 72, 45, 24, -23, 20, 76, 58, 55, -40, -46, -51, 21, -47, 37, -50, -8, -70, -70, 46, -28, -10, -21, 11, -35, 36, -35, 50, -16, -59, 41, 54, 10, -16, 26, -51, 49, -29, -29, -23, 32, 46, 28, 23, 45, -23, -51, -32, -25, 54, 14, -23, -14, -47, 43, 11, 21, 14, 43, 36, -32, 69, 20, 38, 22, 52, -45, -49, -44, 31, -7, 7, -34, -11, -16, -46, -59, 0, 48, 41, 12, -40, 11, 19, -3, 46, 
  -40, 29, -53, -48, -31, -28, -12, 3, -16, -71, -63, -37, -22, -34, 0, -70, -57, 44, -1, 45, -67, -38, 37, -55, 32, 34, 46, 32, -10, 36, -15, -3, -63, -34, 7, -22, 11, 7, 51, -47, 57, -39, 6, -38, 38, 29, -16, -24, 9, 11, -37, 6, 1, 28, -1, 2, 23, 8, 20, 29, 17, 22, -56, -7, -13, 68, -13, -2, -13, -36, 70, -22, -4, 65, 2, -24, -24, 25, 44, 14, -27, -58, 17, 35, 0, -46, -21, -43, -39, 31, 0, -33, -43, 24, -1, 27, 37, 19, 7, 32, -55, 
  -9, -13, 47, -38, -22, -43, -30, -30, -61, 56, -28, 68, -12, 16, -4, -16, 72, 1, 28, 7, -29, -43, -40, -30, -16, -11, 50, -69, -27, 4, -51, -59, -7, -34, -20, 1, 22, -22, -2, -61, 40, -3, -43, -62, -44, -58, -49, 13, 25, -2, -29, 2, 4, -11, 15, -19, -49, 23, 46, -35, 50, 26, 40, 34, -42, -59, 29, 18, -39, -43, -20, -18, -39, -27, 70, -32, -34, 69, 1, 13, 67, 30, 49, 51, -62, 11, -31, -48, 7, 2, -9, -34, -32, -7, -24, -27, -12, 8, 57, 53, 32, 
  -33, -1, -29, -2, 25, -28, 6, 42, -44, -23, 29, -40, 21, -41, -31, -52, -52, 27, 11, 13, -59, 58, 17, 14, 54, 32, 23, 11, 2, -28, 47, 38, -9, 27, 32, 19, 10, 33, 50, 21, -1, 50, 67, 4, -3, -5, 25, 55, -1, 2, -5, -34, 1, -49, 52, 17, -20, 33, 50, 7, -17, 40, -60, -68, -29, -2, -6, -31, 57, 30, 14, 27, 36, 1, 32, -15, -34, 21, -13, -64, 23, -63, -41, -38, 13, 50, 7, -52, 41, -36, -29, -1, 49, -44, 20, 47, 20, -47, -54, 35, -33, 
  19, 58, -13, 4, 15, -26, -21, -51, 22, -27, 14, 54, 52, 6, 34, -44, -37, -9, -42, -54, -50, 6, 54, 25, -11, 42, 17, -3, -37, -49, 0, 25, -22, 34, -2, 39, 12, 4, -55, 9, 46, 54, -44, 53, 19, 10, 43, -47, -45, -56, -5, 2, 0, 4, -32, -27, 32, -41, 22, -40, -50, -44, -5, -39, 12, -49, -50, 0, 61, -48, -58, 36, 14, -23, 12, -45, -50, -5, -23, 24, -20, -28, 10, 53, 4, 44, 41, -49, 16, -58, -8, -50, -14, 51, 5, 48, 24, -21, -48, -51, 19, 
  -14, -39, 56, 56, 42, 26, 41, -26, -16, 15, -22, -16, -43, 20, 32, 49, -20, 59, -48, 8, 24, -11, -41, -59, -46, 28, 38, 30, 36, -46, -24, -48, -48, -12, -34, 56, -8, -22, 53, -29, 3, -39, -17, -10, 27, -15, -57, -20, -21, -47, -51, -22, -60, -10, -5, 32, 44, -13, 34, -17, -36, 8, 11, -57, -31, -26, -1, 48, -3, 24, -45, -43, -54, 0, 8, 17, 42, 3, -4, 30, 56, 34, -23, -3, -19, -32, 14, -54, 56, -58, -34, -22, 16, 11, -1, -17, 41, -16, 52, -24, 11, 
  -75, -20, -63, 28, 11, 56, -26, -45, -34, 39, 8, -23, -20, 35, 73, 59, 13, 88, -1, 64, 23, 74, 59, -19, 17, 5, 62, 7, -8, 9, 38, -31, -48, -1, 0, 1, -21, -37, -25, 12, 20, -42, -36, -32, -25, 53, 11, 49, -9, -60, -8, -12, 52, -44, -8, 4, 53, 2, 19, -8, 39, -12, 37, 4, 36, -41, -46, 46, 11, -15, 67, 32, 17, 61, -10, 3, 50, 31, -44, -34, 50, -20, -11, -69, -52, -25, -5, -42, 0, -6, -27, -32, 49, -3, -35, 42, 33, -50, -22, -7, -38, 
  -16, -29, -13, -5, 7, 58, 15, 23, 15, 63, 52, 23, -41, -20, -30, 64, -9, -25, 13, 26, 46, -9, -31, 36, -33, 33, 28, 61, -4, 27, 14, -53, -15, -36, -54, 2, 46, 51, -7, 1, -52, -2, -54, -61, 51, 35, -56, -54, -67, 16, 8, -4, 33, -42, 19, 42, -20, -6, 18, 24, -50, -61, 52, 39, -4, 13, 59, 6, 32, -50, 24, -43, -48, 62, 42, -35, 8, 12, 51, -40, 20, 62, 56, 49, 58, 41, 13, -14, -44, -26, -45, -3, -7, -11, 55, -4, 4, 19, 68, 32, 39, 
  -25, 46, -9, -64, 40, -39, -42, -28, -41, -60, -32, 27, -50, 32, 7, 20, -19, 27, -59, 33, 49, -63, -5, -70, -11, -44, -61, -2, -56, 39, -53, -29, -74, 21, -56, 0, -46, -21, 28, 15, 60, 59, 3, -11, -34, -26, -17, 52, -53, -2, -41, -11, 6, -28, 1, 2, 22, 52, 54, -16, -32, -40, 6, -9, -23, -33, -37, -21, -2, 14, -56, -64, 31, -14, 46, -11, 12, 56, -18, -27, 48, 59, 4, -63, -21, 41, -59, -40, -75, 22, 18, -82, -86, -62, 3, -25, -37, 23, -9, 47, 10, 
};
const TfArray<2, int> tensor_dimension5 = { 2, { 150,101 } };
const TfArray<1, float> quant5_scale = { 1, { 0.0025413925759494305, } };
const TfArray<1, int> quant5_zero = { 1, { 0 } };
const TfLiteAffineQuantization quant5 = { (TfLiteFloatArray*)&quant5_scale, (TfLiteIntArray*)&quant5_zero, 0 };
const ALIGN(8) int8_t tensor_data6[150*150] = { 
  -18, -37, -31, 29, 36, 34, 22, 20, 36, 34, 36, -60, -31, 53, -3, -15, -4, -9, 36, 20, -36, -28, 41, 35, -68, -24, 10, 27, -16, -10, 29, 9, -21, -51, -10, -47, -54, -8, -66, -21, 17, -11, 23, -18, -46, -29, 3, -44, 36, -1, 6, -2, -20, 42, 33, -22, -58, -3, -59, -86, 23, -37, 30, -41, -44, -53, 51, 4, -45, 37, 23, -20, 47, -66, -40, 56, -4, 23, -1, -10, -9, 32, 11, 43, 4, -49, 40, 27, 11, 40, 7, -52, 36, 10, 23, -23, 57, -75, -58, -14, 1, 7, 60, -39, 49, -21, -18, 35, 26, 26, 46, -11, -45, -8, 22, -39, 37, -3, -26, -30, 0, 47, -29, 21, 16, -34, 3, -27, 28, 6, 27, 7, -21, 25, 48, 52, -23, -27, -13, 19, -42, -12, 55, 32, -6, -44, 35, -30, -38, 55, 
  -34, -51, -35, 41, 52, 43, -5, 6, -29, 37, 16, -10, -54, -45, 54, 43, -20, -24, 33, 50, -9, 39, 14, -27, -40, 23, 45, -15, -37, 45, 23, 18, 59, 22, -26, -41, -36, 40, -18, 16, -59, 21, 12, 55, 50, -20, 5, 35, 12, -31, -18, 55, -27, 5, -47, 32, -23, 48, -3, -63, 27, -6, 45, 28, -57, 7, 18, -34, -48, -39, -39, 5, -6, 16, -25, 25, -55, 24, -55, -3, -42, -47, 45, 24, -28, 21, -41, -28, 34, 33, 9, 31, 5, -46, 55, -7, 16, -15, 0, -32, 8, -5, 18, -51, -60, 1, 34, -23, 11, -30, 15, -41, -46, -38, -3, -34, -29, -4, -37, -30, -52, -32, -33, 11, -15, -9, -16, 19, -55, -43, 16, -28, 49, 25, 44, 27, -40, -10, 52, 13, 40, -20, -14, 38, -13, 32, -40, 25, 5, 37, 
  -27, -14, 26, -38, -29, 18, 31, 36, -3, 2, -5, 37, 53, -4, 6, 27, -38, 38, 50, 52, -47, 45, -38, 37, -23, -18, -58, 39, -4, -5, -49, 14, 31, -23, -48, 17, -31, -28, -42, 54, 45, 38, -16, -25, -13, -5, -25, -46, 18, 72, -62, 37, 57, -35, -8, 4, -50, -30, -53, -35, 34, 19, -66, 8, 19, -59, 40, 12, 26, -31, -45, 37, -25, -36, -47, -43, 22, 50, 14, 20, 9, -40, 12, 14, -23, -20, -47, -8, 54, 2, -22, -19, 42, 20, 11, -21, 31, 0, -41, -21, 8, -51, -28, 59, -28, -54, 23, 61, -53, -9, -20, 28, -52, 14, 15, 2, -2, 55, -14, -15, 17, 59, -8, 8, -47, -43, 18, -28, 22, -1, 48, 51, -14, 54, -52, 43, 41, -1, 33, -19, -19, 41, 22, 49, 36, -4, -36, 3, -18, -9, 
  -40, 32, 21, -57, 2, 50, -47, 5, 49, 35, -60, 14, 6, 48, -5, -5, -44, -62, 39, -34, -5, -62, -12, -3, -48, -15, -48, -37, 52, -1, -32, -10, 6, 28, -32, 22, -12, -36, -24, 9, -2, -52, -33, 24, 21, 3, -50, -58, 24, -8, 6, -43, -20, -19, 43, 13, 34, 42, -26, -57, 0, -59, -58, -3, -23, 7, 49, -28, 14, 24, 37, 34, -30, -47, -58, -19, -29, -15, 32, 38, -27, -4, 23, 2, -29, -7, -30, -50, -10, -34, -41, -1, -37, 45, 46, 41, -39, -19, 20, 51, -30, -7, 49, 37, 21, -46, -16, -36, -5, 50, 21, -9, -53, 10, -33, -30, 45, 35, -7, 38, -7, -31, -9, 0, 4, 15, -19, -28, 49, -4, 50, -51, 33, -18, 43, -50, 37, 48, -13, -33, 28, -37, 4, -60, -13, 50, 18, -1, 32, -31, 
  7, 1, 37, -53, 20, 37, -24, 5, -40, 18, -50, -43, 34, 31, 50, -57, -1, -21, 34, -20, -13, 52, 54, 2, -31, -58, 17, -1, -30, 36, 52, -37, 31, 15, 37, 19, -15, 12, -18, -20, -6, 8, 40, 28, -13, -46, 24, 32, -25, 41, 5, 49, -14, -26, -57, -46, 22, 39, 1, -41, -3, -67, -56, -44, -4, -29, -19, -19, -30, 51, 3, -1, -51, 17, 46, -44, 15, 10, 43, -4, 38, -56, 19, -53, -34, -6, -26, 12, -28, -38, 3, -44, 38, 21, -16, 15, -2, 47, -1, 54, -22, 43, 49, -7, 13, 19, 6, -43, 13, 13, -8, 49, 29, 2, 55, -7, 21, 16, -44, -17, -34, 45, -55, 42, -8, -15, -43, 26, -39, 8, 43, 38, 2, 1, -26, -8, -33, 15, 32, 50, 55, -9, -50, -18, -33, -39, -34, -8, -50, -27, 
  34, 33, 48, 43, 47, 12, -33, -6, -21, -4, -45, -36, 22, -53, -24, -42, -20, 31, -4, 38, 44, -41, 14, -41, -56, -67, 17, 30, -37, -15, 1, 17, -72, 53, -38, -28, 39, 6, -19, -42, 34, 9, -11, 14, -28, 17, -4, -21, 4, -9, -46, -41, -42, 27, 39, 14, 11, 26, 33, -51, -37, -61, -45, -55, -28, 32, 57, -33, 48, -3, 41, 42, -3, 7, -48, 18, -19, 48, -53, -57, 47, 44, 24, -7, -52, -45, -55, -3, 13, 40, -25, 16, -28, 28, 25, 38, -10, -61, -10, 1, 32, 27, 15, -11, 51, -15, 16, 47, 39, -25, 47, 11, -26, -15, -32, 27, -24, -30, 45, 1, 38, -37, 11, 26, -13, -3, 42, -22, -46, -28, 9, -45, 24, 8, 54, -18, 17, -27, 0, 3, -55, -21, 40, -17, -47, -56, 25, 46, 16, -3, 
  62, 20, -30, 30, -42, -9, 16, -52, -44, -53, 66, -32, -48, -11, -2, -1, 30, 18, -2, 18, -43, -5, 18, -53, 65, -56, -35, 28, 30, -11, 29, 30, 44, 11, -34, -25, -3, -18, -20, 33, -35, -69, 0, -45, -37, -2, 5, -54, -49, 15, -12, -40, -58, -51, 37, 55, 8, 47, -16, 43, 61, -11, -33, 21, 38, 19, 34, 13, -9, 36, -15, -50, 32, 30, 27, -20, 4, -27, 41, 10, -32, -5, -60, -14, -49, 15, 49, -56, 22, 54, 39, 34, 38, 12, 5, -24, -17, 52, -20, -9, 17, 34, 14, -33, 28, 25, 52, -29, 12, -13, 17, 23, -58, -45, 9, -56, 45, -26, -42, -9, 12, 11, -23, -9, 32, 65, -48, 25, 52, -11, -47, 6, 50, 15, -31, -37, 8, -13, 52, 60, 29, 27, 20, -18, 19, -10, -48, -64, 37, -33, 
  -28, -28, 7, 42, 30, 34, -43, 3, -30, 37, -8, -21, 33, -24, -58, 13, 49, 38, -25, -18, -39, -3, 24, -13, -5, 17, -1, -10, -6, 53, -8, 33, 25, -12, 39, 20, 33, -33, -22, 24, 38, 23, -14, -50, 54, 36, -13, -55, -32, -25, -43, -50, -10, -3, -39, -22, -74, 27, -3, -20, -56, -45, -41, 11, -13, -42, -30, -43, 2, 37, -63, 22, 46, -57, 6, 34, -42, 1, 51, -41, -27, 16, 18, -45, 41, -12, 24, -40, 58, 52, -5, -34, -22, -14, 43, -3, 33, 8, -43, -36, -54, -26, 20, 20, 13, -2, -6, 50, -1, -10, 11, -33, 36, -37, -11, -15, -37, 55, 12, 5, -1, -1, 17, -28, 7, 18, -46, 22, -29, 29, -16, -30, 47, 55, -2, -17, -17, 41, -12, 45, 2, -1, 26, 31, -60, 36, -13, 39, 49, 33, 
  -56, 44, 47, -39, -35, -47, -16, 19, -43, 28, -8, 44, 27, -55, 17, 22, 15, -11, -12, -29, -48, -9, -65, 45, 54, 11, -56, 1, 26, -29, -17, -36, -51, -41, -27, 43, 33, -59, -41, -10, 31, -61, 34, -61, 36, -16, -4, -23, -46, -5, 5, -55, 1, -63, 47, 2, 59, 46, -42, 0, -29, 29, 57, 49, 10, -43, -55, -48, 38, -16, -7, 45, 9, 56, 53, -53, -40, -39, 5, -47, -5, 47, -15, -38, -62, -73, -20, -24, 47, 10, -22, 53, 26, 5, 30, -53, -4, -24, -23, 16, 4, 4, -35, 3, 38, -32, 23, 41, 36, 40, -37, -58, -21, 53, -52, -3, -55, -73, -22, 25, -9, 49, -15, 28, 16, -42, 2, -62, -23, -27, 9, -22, 11, 21, 41, 53, 44, 34, 23, -40, -29, -61, -23, 39, 32, -45, -18, -32, -30, -39, 
  -3, -31, 0, 5, -39, -51, 22, 24, -53, 5, -17, -21, -27, 1, 12, 22, 33, 17, 4, 4, 33, 6, 70, -30, -63, -13, 11, -28, 41, 11, 23, 2, -40, -62, 33, 38, -23, 16, -44, -90, -5, -38, 35, -36, 9, 10, -30, 37, 15, -25, 17, -15, -18, 48, -53, -38, 18, -21, 41, -31, 42, -51, -51, 1, -12, -28, -12, 48, -10, -46, 8, 46, 26, -71, -14, -4, 40, 11, -40, -16, -48, -29, -61, 38, 4, -76, -91, 25, -37, -16, 2, -55, -44, -51, 30, -25, -17, -54, -97, -35, -1, 41, -51, -14, 26, -25, 27, 8, 1, 13, 49, 1, 11, 32, 27, 6, 24, -2, 14, 16, -11, -6, 19, 37, -57, -20, 37, -35, 21, 6, -1, 35, 33, -49, -49, 19, -23, 15, 14, -16, -3, 54, 56, 46, -26, 22, 8, 40, -48, -4, 
  -14, -30, -20, 21, -26, 2, 32, 46, 24, 31, -47, 44, -43, -31, -45, -9, -58, 25, 37, 51, -53, 52, -43, -20, 15, 55, 46, -20, 47, -3, -54, 31, 53, -50, 4, 41, 21, -26, -1, -36, -5, -38, -6, -4, -58, 12, -16, 27, -29, -16, -31, -21, -21, 32, -29, -57, -19, -24, 55, 43, 7, 36, 48, -28, -49, -38, -13, 25, 41, -23, -34, -32, 28, -22, -18, 0, 20, -46, 39, -50, -51, -9, 27, 20, -25, -18, 30, -4, 0, -52, 51, -6, -43, -2, 25, -42, -26, 33, 12, -21, -57, 52, 7, 18, -32, 41, 38, 21, -30, 43, -57, 42, -10, -22, 0, 33, -2, -36, -19, -32, -38, -44, -6, 19, 19, -27, -18, 29, -8, 50, 11, -53, 30, -13, -21, 13, 52, -6, -14, 26, 27, -39, 51, 54, -7, -21, 33, -39, 55, -11, 
  8, -26, 9, 8, 14, 26, 40, 33, -55, -30, 10, 36, -8, 13, 23, 36, 7, -15, 35, 53, 19, -3, 24, -35, 3, -29, -13, 49, 7, 9, -57, 72, -34, -18, -18, -16, -44, 11, 5, 18, -24, 73, 20, 22, -27, -17, 48, -30, 19, -28, -29, -50, 30, -5, -26, -51, -11, 48, 1, 37, -54, 63, -45, -57, 41, 19, 49, -47, -39, -39, 16, -36, -1, 60, 54, -22, -18, 25, -13, -12, -39, 4, 19, -13, -53, 64, -62, -32, -13, 27, 8, -50, 44, -2, -33, -48, 47, -30, -13, -18, 42, -10, 41, -60, -55, 17, 50, 39, -44, 12, -55, 28, 16, -50, 37, 6, 42, -11, -43, 11, 19, -19, 42, -28, -55, 20, 33, 36, 10, -60, 18, -3, -20, 29, -47, 39, 12, 24, -45, -35, -11, -42, -15, 11, 42, 22, 43, 35, -50, -38, 
  33, -4, -56, 11, -49, 52, 3, -36, 12, 11, 35, -12, 35, -29, 3, -39, 41, 44, 37, 16, 44, 36, -4, 5, 25, 31, 2, -30, 14, 29, 38, -33, -56, 9, -59, 45, 22, -29, 45, 31, -32, -21, 38, 14, -11, 53, -50, 5, 6, -22, 2, -2, -45, 25, 38, 21, -45, -7, 32, -53, -61, 16, -27, 36, -34, 30, 15, -41, -16, 15, -47, 4, -7, 46, -60, -1, 39, -27, -38, -40, -18, 42, -50, -25, 9, -44, 21, -2, 11, -15, 22, 45, 16, -51, 50, -35, -28, 17, -63, 6, -15, -45, 6, 6, 3, -16, 15, 52, -36, 29, 4, -27, -19, -53, 29, -53, 10, 49, 6, 13, -43, 59, -12, 10, -18, -62, 41, -3, -20, 35, 1, 16, -1, -1, -49, -22, 34, 4, 33, -18, 37, -49, -47, 38, 32, -50, 24, -5, -35, 9, 
  10, -16, 3, -32, -22, 13, 34, 64, 52, 39, -46, -61, 62, -32, 20, 36, 39, 49, -39, -43, 42, -57, -24, 2, -57, -22, -40, 20, 33, 22, 29, -18, 40, -12, 48, -35, 47, 42, 44, 26, 28, -11, -11, 52, -34, -51, 50, 20, 3, -44, 26, -35, -47, 13, 40, -36, -50, -6, 48, 44, 24, 57, -26, -66, 25, -39, 36, 49, -11, 59, 23, -42, -7, 30, -50, -41, 6, 45, -31, 42, -25, -19, -66, 1, -26, 53, -17, -40, 29, -15, -33, 46, -39, -2, 43, -48, -32, -35, -41, 40, -19, 16, 39, -33, -32, 30, -27, 7, 12, -53, -25, -19, 11, -5, -13, -2, -8, 37, -51, 55, 37, 19, 41, 9, -54, -27, -28, -20, -44, -57, 11, -8, -1, 35, 56, -45, 4, -47, -29, -48, 26, -12, 48, 51, 64, -35, 4, 15, -7, -14, 
  1, 14, -51, -19, 49, 33, 0, -51, 31, -1, -20, -33, 17, -45, 32, -54, -16, 32, -62, -4, -27, 8, -32, -49, 19, 6, -37, -58, 5, 0, -12, 11, 45, 33, -1, 4, -47, -23, -56, 33, -32, -33, -5, 23, -12, 16, 16, 14, -54, -17, 38, 33, 48, -9, 16, 6, -24, -37, -11, -58, 20, -25, -12, -20, 37, -1, -4, 21, 9, -11, -3, -37, 15, 38, 56, -29, 15, -17, -22, 10, 31, 46, -40, 21, 13, 3, 12, 36, 38, -12, 9, -2, 24, 17, -27, 8, 14, 13, -47, 39, -12, -39, 39, -17, 39, 15, 28, 43, 49, -48, 44, 4, -58, -15, -13, 33, 54, 7, -39, -33, -26, -40, -52, 41, 11, -46, -49, -56, 58, 4, -18, -53, -4, 16, -45, -40, -49, 20, -11, 14, -18, 0, -53, 43, 49, 27, 26, 49, -42, -5, 
  33, -66, 43, 25, 6, 7, 37, -57, 18, -45, 66, -12, -35, 39, -41, -35, 16, -56, -25, -18, 57, 45, 66, 7, 2, 31, -24, -58, -29, -18, -24, -37, -31, 18, -5, 62, -87, -3, 33, -10, -36, -7, -36, -54, 2, 32, -23, 39, 33, 7, 7, -47, -31, 33, -12, 55, 83, 3, -39, -32, -18, 50, -24, 77, 42, -5, 12, 12, 42, -26, 2, 21, -10, 25, 35, -58, 10, 40, -39, -22, -18, -9, -7, -3, 24, -30, -8, -38, -7, -29, 50, 90, -55, -11, 12, 52, 18, 35, 0, 46, 42, 38, 6, 36, 25, 16, -23, -12, -47, -14, -49, 26, 23, -30, 47, -9, 0, -19, 35, 47, 42, 47, 42, 35, 34, -41, -47, -61, 4, -17, 21, 33, -26, -1, 30, 40, 1, -23, -29, 32, 54, -50, -24, 26, 42, -29, 21, 16, -30, -46, 
  -10, 17, -33, 50, -7, -6, 18, 53, -21, 34, 43, 51, -9, -30, -47, -43, -7, 12, 10, -16, 1, -51, -23, 23, -35, -20, 56, 7, -17, -48, -29, 15, -17, 24, -4, -27, -25, -24, 50, 0, -18, 82, 30, 44, 36, 5, -44, -14, 39, -24, -21, 52, 20, -5, -9, 14, 41, -6, -16, 27, 53, 42, -65, 25, -15, 48, 37, -29, 46, -55, -44, 1, -29, -7, -46, 42, 37, -3, 29, -3, 42, -20, 1, 26, -54, 37, -23, -44, -41, -53, 32, -33, 20, -2, -4, -39, -12, 5, 12, 34, -14, -43, -44, -7, 48, -54, -47, 26, 51, -57, 9, 48, -1, 20, 33, -50, 54, -36, -37, -34, -32, 5, -36, -15, -17, -16, -19, 8, 25, 18, -55, 44, 1, 44, -33, 14, -26, 52, -51, 47, 52, 2, 53, 18, 35, -25, 38, -33, 10, 42, 
  39, -19, 26, -16, 24, 21, 54, 27, 19, -40, 8, -1, 25, 11, 34, -7, 40, 41, 41, -31, 26, -9, -17, -44, -2, -33, 41, -10, -37, 42, 10, 42, 29, -27, -48, -52, 56, -30, 18, -23, -34, 58, 17, 6, -4, 39, -29, -6, -1, 31, 49, -29, 28, -43, -50, 13, 58, -45, 8, 40, -29, 51, 34, -23, 33, -37, 44, -27, 5, 42, 92, -13, 34, 41, -43, -13, 38, -44, 29, -10, 55, -48, -33, 43, -15, 41, 7, 0, -9, 23, -32, 9, -32, 43, 32, -31, 7, 1, 17, 32, -31, 33, -34, -18, -2, 1, -13, -39, -1, 0, -25, 50, -25, 49, 11, 7, -10, -69, 38, -10, 5, -5, -51, 9, 35, 21, 20, -45, 50, 43, 3, 18, -8, -30, 16, -45, -53, -51, 45, 32, -19, -21, 35, -8, 47, -33, -9, 25, -14, -19, 
  32, -65, -43, -12, -54, 6, 51, -16, 51, -54, -64, -16, -59, 22, 38, 22, -75, 54, -8, -35, 24, 14, -15, 15, -75, -69, -6, 43, -48, -22, -19, -33, -14, 2, 14, -55, 11, 56, 36, 7, -55, 36, 20, -51, -51, 59, -18, -40, 37, -8, 11, 52, 32, 42, 27, -35, 0, -4, -52, -59, 34, -14, -57, -30, 50, -14, 30, -5, 30, -23, -48, -48, 14, -51, -51, -9, 55, 36, -12, 13, 50, -51, 37, -47, -30, -23, 32, 10, -36, -8, -24, -51, 35, 0, -16, -37, -60, -28, 7, 1, -37, 13, -43, 57, 28, 28, -25, 38, -38, -8, 40, -53, 40, 13, -33, 51, -10, 20, -11, -19, -56, 48, 45, -43, -59, 1, 18, 32, 29, 9, -20, -8, -31, -60, 36, 8, 22, 44, -11, -30, 15, 4, 18, 54, -4, 43, -18, 37, 28, 36, 
  8, 38, -49, -25, 16, 50, 1, 33, -25, -37, -19, 13, -47, -7, 2, 39, 11, -16, -59, 5, -14, 50, 13, -50, -61, 1, -18, 44, 20, -23, -9, -63, -52, 52, 53, -45, -67, 42, 30, -38, -33, -43, -26, -48, -24, 4, 7, -4, -50, 17, 10, 48, -14, 36, -29, -33, -12, 37, 40, -40, -9, 48, 72, 87, -5, 48, 19, 39, 28, -16, 96, 16, -14, 11, -58, 23, -46, -38, 27, -19, -2, 23, 0, 17, -6, 39, 14, -25, 11, -46, -12, 7, -10, -30, 48, 37, -56, -39, 7, -9, 14, -9, -27, -31, -51, 20, 58, 8, -13, 39, 9, 9, 32, -16, -9, -18, 9, -25, 4, -12, -12, 23, 30, 59, -17, 35, 45, -19, -21, 27, 52, -5, 1, -42, -40, -6, -24, 31, -36, 24, 16, -34, -43, -4, -18, 46, 18, 19, 5, -41, 
  23, -27, 18, 11, -49, 2, 36, 47, 21, 27, -19, -29, 24, 41, 4, 56, -34, -3, 35, -7, -34, -17, -4, 47, -87, 18, 1, 5, 8, 35, 44, 8, -67, 33, 18, 1, -48, -36, -10, -23, 52, -48, 42, 17, 21, 17, 58, -3, -29, 39, -52, -40, -4, -23, 12, 4, 10, -54, -53, -29, -26, -23, 21, -31, -43, 43, 29, 37, -45, 18, 0, 15, 61, -85, 9, 18, -54, -5, 18, -6, -35, -31, -68, -2, 59, -53, -55, -26, -38, 15, -41, -13, -18, 51, -23, 0, -50, -25, -84, -15, 28, 42, 31, -44, 64, -21, 13, -28, 36, -50, 46, 47, -10, -13, -1, 21, -49, -10, 10, 0, 35, -32, 54, 17, 23, -44, 28, -33, -74, -58, -27, -40, 46, 6, 5, -41, -6, 17, -5, -20, -29, -3, -24, -38, 1, -10, -13, 20, 36, -45, 
  -36, 53, 36, 49, -28, -53, -20, -25, 35, -9, -10, 20, -54, -33, -55, -5, -13, -42, 9, -33, 37, 49, -38, 37, 9, 60, -30, -23, -7, -54, 12, 39, 26, -13, 19, 24, 2, -14, 16, 23, -53, 64, 53, -4, 29, 30, 24, 0, 12, -32, 14, 8, 16, 41, -49, 46, 16, -51, 14, 56, -26, 7, -25, 3, 55, -26, -35, 4, -39, -39, 47, 13, -5, 43, 5, -40, -14, 55, -47, -52, 51, -5, 48, -2, 25, -16, 51, 35, -7, -43, 34, 37, 35, 8, -35, -17, 19, 1, 61, 14, 27, 58, -34, 54, 16, -18, -15, 34, 11, 49, -1, -32, -22, 41, 45, 25, -28, -25, 3, 34, 49, 20, 34, -53, 50, -19, 41, 3, -22, -17, -20, -19, -37, -10, -24, 48, 47, -11, -11, 54, -3, -13, -16, -30, -59, 4, -52, 2, -48, 36, 
  9, 50, 8, -52, 15, 0, -38, 9, -1, 48, 11, -60, 43, 44, -45, 35, 11, 27, -48, -37, -10, 32, -37, -18, 0, 24, 31, 46, -18, 60, -15, 7, 11, -11, -54, 49, 11, -42, -47, -24, -50, 36, 26, 50, 1, 1, 45, 31, -30, 51, -42, -19, -30, 16, 28, -40, 39, -38, -38, -32, -14, 31, -33, -30, 48, -35, 7, -29, 27, -51, 15, -8, 18, 27, -37, -46, 50, -25, -58, 9, 12, 5, 13, -41, 50, 50, 12, 9, -50, 14, 27, 21, 34, 10, -15, 47, -36, 37, -24, -8, -12, 33, 21, 14, -17, -36, -30, -1, 49, 50, -35, 47, 53, 6, -20, -26, 1, 30, -34, 46, 0, -23, -48, 38, -6, 5, -57, 21, -6, -32, -27, 6, 17, -33, -5, 3, -1, 55, 43, -20, 38, -23, 42, 38, -4, 16, 17, -42, 5, -9, 
  -38, 8, -25, 7, 12, -34, -7, 22, -17, -50, 48, 19, 17, 3, 47, 28, 44, -23, -60, 3, 28, -59, -3, -20, 41, -26, 58, -47, 12, -21, -49, -42, -55, -9, 55, 46, -41, 42, 42, -39, 36, -3, 36, -25, -52, 7, -51, -13, 13, -12, 11, -59, 43, -20, -48, -22, -43, -56, -39, -50, 51, -8, -16, -24, 31, 40, -28, 5, -9, -46, 0, -15, -25, -39, 48, -22, -14, -39, 19, 32, -1, 28, -19, 14, -51, -14, 23, 9, 33, 49, -28, -39, -11, 53, -39, -6, -41, -11, -18, -32, 51, -46, -40, 10, -24, 25, 14, -20, -11, -6, 42, -34, 21, -5, -24, -23, -5, -14, 46, -59, 32, 4, -2, 58, -33, 6, 24, -2, -8, 23, 36, -28, -27, -49, -22, -8, -39, -59, -57, -34, 4, -40, 9, -39, 11, -30, 58, -16, 43, 12, 
  -23, -42, -16, -20, -50, -3, -35, -29, -30, 18, 20, 36, -22, 4, -6, 21, 72, -52, 28, 55, 8, 26, -18, 52, -21, 18, -45, -52, 30, 87, 42, 0, 9, 23, -19, 56, -40, -8, 13, -29, -3, 41, -17, -13, 40, -11, -36, -6, 20, -13, -39, -18, -32, 4, -47, -24, 14, 28, -42, -49, -45, 40, -48, -6, -50, -44, -8, 22, -1, -50, -44, -17, -16, 69, 52, 35, -3, 31, 19, 12, 37, -18, 6, -38, -20, -25, 19, -26, 49, 40, 0, 31, -26, 38, -34, -59, -4, 25, -33, -18, -23, -29, 12, -25, 45, 52, -31, -20, 17, 3, -44, -32, -22, -7, -12, -10, -55, -19, -42, -39, 33, 31, 12, -23, 12, 21, 23, 10, -32, -1, 31, 59, 20, 33, 49, 5, -33, -41, 40, 45, 13, -30, 25, -26, -64, 53, 9, -48, 9, 36, 
  -24, -20, 29, 38, -33, 30, -19, -34, -27, 16, -15, 60, -32, 30, -6, -56, -38, -55, -55, 3, 8, 34, -2, -32, -11, -66, 31, -55, -18, 18, 41, -24, 52, 35, -60, -35, 60, -28, 7, 0, 23, -1, -3, 12, 14, -38, 0, -54, 35, -39, -58, 36, 4, -23, 17, -21, -19, -21, 3, -80, -8, 12, -49, -37, -28, 24, 13, 27, 47, -19, 43, -48, 4, -22, 29, 28, -46, -50, 41, -24, -12, -45, -9, -42, 15, -26, -4, 3, -50, -30, 36, 34, 2, -46, -1, -51, -23, -45, -5, 30, -1, -61, -12, 70, -77, 47, -21, -2, -50, -7, 40, -25, -67, 47, -35, -71, 41, -39, -21, -61, -84, -3, -40, -57, 34, 45, 2, -46, 65, 6, -16, 11, -18, -83, -26, 43, -20, 35, 65, -66, -43, 9, -1, -3, 40, 32, 28, -4, 40, 65, 
  5, -14, 32, 43, 7, 0, 47, -3, -41, -51, -12, 12, -58, -52, 25, -53, 8, 14, 21, 35, 10, 13, -6, 5, 2, 19, -54, 4, 26, 2, -36, -53, 7, 1, 5, -15, -19, 40, -8, 21, 22, -13, -29, -59, 32, 42, -4, -49, 12, 61, 13, 52, 46, -10, -48, -26, -39, -36, -5, -17, -47, -36, -34, 36, -30, -36, 45, -54, -44, 27, -50, -45, -40, 54, -40, -41, 4, -21, 55, -44, -13, 40, -7, -45, 34, 18, 35, -46, 49, -40, 48, 17, -5, -48, 25, -40, -33, -12, 48, -20, 19, 1, -55, 4, 6, -36, 3, 57, -7, 29, -6, 24, -17, -19, -16, 36, 28, 3, 30, -5, -46, -2, -45, -25, 14, -25, -6, -19, 22, -21, -25, 29, -44, 6, -3, -17, 22, 23, -29, -4, 54, 43, -3, 49, -51, 16, 22, 40, -45, 11, 
  -36, 13, 30, -2, 9, 5, 31, 30, -4, 48, 17, -6, 28, -38, -45, 35, -29, -46, -55, -33, -48, 24, 18, 25, -54, 46, -12, -26, -21, 49, 11, 13, -27, 3, -15, -26, -11, 18, 5, 31, -48, 10, 37, -4, 3, 22, 49, 43, -40, -55, 60, 18, 41, -26, -12, -5, -3, 35, 54, -39, -45, -5, 27, 32, -47, 34, -10, 16, 31, -20, 68, 28, 33, 28, 30, -51, -34, -37, 40, 50, 43, 29, -20, -44, -6, 22, 20, -26, -11, 31, 57, 11, 38, 6, 0, -9, 45, -5, -43, -21, 6, 46, 9, -15, 48, -21, -22, 1, -51, -4, 37, 28, 43, 6, -15, -50, 44, -11, -40, 13, 16, -51, -54, 37, -41, 40, 47, -26, 12, 80, -35, 41, -42, 39, 0, 25, 44, -44, 6, -28, -38, -51, -16, 33, 12, 13, 3, -6, -20, -38, 
  1, 37, -10, -31, -14, -11, -28, 17, -31, -30, -47, 31, 40, 22, 11, 53, 54, -40, -23, -52, -25, -14, 7, -36, -52, 44, -4, -26, 6, -59, -34, 33, -25, -24, 38, 25, 11, -39, -55, -31, 9, -58, -3, 57, 4, 20, 28, 55, 52, -17, -4, -33, 24, -41, -13, 34, -23, -42, 27, -5, -27, -59, 27, 6, -36, -34, -39, -42, -22, -29, 31, 51, -52, 8, 9, -20, 14, 38, 20, 38, 30, -58, 24, -41, -25, 20, 17, -9, 19, 7, 22, 9, -40, 55, -35, -34, 1, 2, 3, -55, 20, 34, -39, 48, -51, 26, -31, -27, 21, 17, 24, 20, -28, -38, 52, -53, -38, -6, 23, -28, -28, 44, -44, -21, -39, -6, -21, -50, -4, 44, 4, -26, -3, -57, 57, -21, 6, -2, 21, -28, 29, 22, -22, -49, -25, 29, -49, -29, -18, -34, 
  0, 70, 10, -28, -40, -53, -23, -53, 27, -21, 24, 34, -13, -11, -60, 14, -4, 32, 10, 5, -49, -32, 26, -47, 1, 61, 15, -33, 36, -31, -62, 19, 62, -15, 41, -52, 20, 38, -38, 72, 35, 10, -38, -20, 8, 4, -5, 26, 23, 19, 42, 22, -43, -5, 35, -25, -49, 55, 11, 49, -53, 20, -27, 17, -11, -60, -60, -3, 10, 50, -61, 19, -26, -31, 7, 13, 6, -14, 4, -19, -38, -57, 74, -36, -57, 49, 0, -8, -41, -15, -37, 20, 4, 1, 50, 41, 31, 53, 57, -3, -44, 48, 48, 30, -31, -14, 17, 23, 31, -51, -7, 16, 7, 27, 38, -4, 18, -15, -48, -30, -17, 26, -8, -5, 46, -4, 35, 42, -28, 23, -9, 32, 43, 9, 30, -27, -25, 20, -46, 27, 20, -32, -30, 37, 53, -11, 64, 49, 26, 38, 
  8, 0, -21, -35, -49, -21, -14, -4, -18, 46, 60, 5, 13, -13, -8, -20, 0, -44, -9, -56, -13, 53, -27, -38, 56, 70, -56, -5, -38, -34, 23, -37, 30, 26, -26, -60, 45, -11, 46, 3, -57, 31, 42, 21, -24, -11, -32, -9, 24, 36, -10, -14, -53, 6, 21, -14, 21, 55, -7, -22, -5, 23, -34, -14, 38, 32, 15, -9, 47, -43, 31, -52, -19, 67, -22, 36, -5, -34, 13, -44, 17, -7, -15, -45, -8, 1, 50, 49, 29, -32, 47, -9, -18, -13, 2, 23, -34, 51, -11, -20, 48, 47, 47, -32, -20, -33, 2, 13, -9, 48, 1, 11, 24, 22, 38, 36, -48, 32, -3, -32, -21, 12, 22, -4, 17, -17, -44, 31, 59, -40, 35, -10, -39, 2, -31, 13, -15, -15, 62, 59, -45, -18, 37, -15, -50, -4, 14, -4, -27, 8, 
  16, 36, 50, 7, -14, 21, 35, -53, 33, 18, 50, 25, -45, -26, -50, 47, -28, -49, 8, -28, -21, 32, 13, 51, 17, 41, 49, -15, 29, 51, 26, -29, 2, 32, -6, 15, -14, 4, 53, 13, -48, 60, 19, 26, 5, 55, -33, 25, 19, -34, -45, 47, 20, -29, -15, -17, 34, -10, 34, -34, 20, -11, 37, -49, 40, -33, -27, -56, 43, -24, 45, -5, 22, -49, 53, -14, -59, -13, 35, 45, 16, -37, -9, -39, -47, -34, 27, -12, 9, -36, -9, -3, 1, 27, -57, 2, -50, 8, 27, -4, -19, -16, 3, -27, -5, -37, 34, 44, 28, -24, 13, -57, -8, 29, 5, 5, -25, -15, 33, 28, -26, 49, -6, -20, -49, 5, -5, 42, 19, 30, -16, 17, -7, -26, 10, -11, 17, -50, 19, -22, -51, -24, 18, -10, -25, 24, 4, -25, 18, 41, 
  -34, -50, -8, 3, 34, 34, -55, -43, -6, 53, -17, -28, 30, 53, 40, 49, -47, -51, -35, 32, 43, -57, 29, -41, -34, -34, -6, -60, -34, -35, -40, -25, -17, -35, -53, 42, 25, -15, -23, -7, -44, -31, -12, -35, -21, 34, -23, 19, -38, -1, 11, 39, 9, 21, -37, 6, 15, -46, -4, -61, -20, -20, -34, 55, 6, 56, -31, 54, 20, -10, -26, -9, -25, 36, -11, 14, 4, -21, 12, -51, 56, 60, 25, -18, -27, -32, 23, -20, 45, -30, -37, -1, 47, -38, 23, 58, -6, 2, 14, 31, 10, -7, -43, -9, 0, 0, 41, -13, 11, -5, 32, -44, 49, 47, -65, 40, -46, 19, 44, -9, 34, -12, -13, 38, 22, 13, -24, -8, 4, -38, -39, 19, 5, -56, -54, 33, -48, 34, -35, -55, -13, 19, -32, -41, 25, -34, -31, 27, 51, 20, 
  -41, 17, 1, -5, 1, -42, 4, 25, 45, -38, 53, 39, -31, 39, -9, -27, 24, 13, -22, -36, -25, 55, 54, -24, 43, 3, -14, -23, 25, 36, -12, 37, -29, 44, 56, -54, 35, 6, -50, -54, 20, -48, 26, 35, -23, 6, -49, 1, -27, -5, -55, 33, 49, -11, -33, -11, -43, -9, 8, 27, 12, -42, 47, 22, 57, 2, -53, -10, 52, 58, 3, 28, -59, 28, -54, -16, -12, -45, 14, 32, -38, -28, 13, 40, -57, 45, 50, -9, -44, -27, -44, 27, 4, -12, 49, 4, -48, 37, 62, -20, 44, -31, 28, -42, 9, 30, 3, -12, 25, 26, 3, 38, 16, 60, -14, -35, -25, -28, -46, -57, 56, 28, 13, -18, -31, 6, -46, 43, 24, -28, -15, -15, 35, -32, -31, -9, -45, -42, -49, 18, -46, 23, -42, -6, 32, 37, -26, -17, 23, -4, 
  -39, 48, -1, -45, 4, -2, -37, 25, 36, 28, -25, 36, 38, 20, -27, -16, -40, 20, 13, -45, -44, 33, -8, 34, -53, -9, -13, 47, -30, 17, 20, -66, -39, 22, -39, 30, -26, -6, 13, -5, 30, -29, 51, 0, 4, -26, 27, -22, 24, 31, -57, -7, -33, -20, 47, -41, -31, 7, 8, 1, -13, 40, -31, 56, 55, 40, 16, 47, 27, 57, 82, -50, 59, 5, 47, -44, 1, 8, -4, 39, -42, -9, 11, 24, 46, 39, -6, 25, 19, 39, -27, 51, -43, -5, 16, -33, -12, -12, 32, -14, 19, 24, 23, 33, 3, 56, 0, -21, -44, 28, 13, 8, 31, 47, 17, 43, 6, -19, -18, 11, -37, -42, 12, 32, 46, 8, -10, 54, -27, 21, -32, 61, -17, -13, 31, 36, 5, 17, -45, 4, -39, -36, 51, -37, -50, 33, -47, -52, 9, -18, 
  7, -39, -12, -7, -34, -9, -6, -5, -35, 20, 51, -26, -47, 15, -43, 18, 67, 22, -4, 35, 19, 18, -39, -7, 44, 32, -7, -47, -29, -55, 14, -54, 39, -45, -39, -20, -6, 27, -27, -16, -47, 37, 26, -23, 46, 5, 32, -25, -38, 49, 19, 31, 14, -53, 22, -29, 33, -66, 61, -5, -47, -25, 47, 29, -15, 44, 35, -8, -49, -40, 92, 32, -45, 70, -32, 12, 7, 3, 35, -37, 28, 28, 15, 9, 13, -29, -14, 52, -5, 44, 52, -46, -15, -35, 59, 26, -31, 65, 32, 46, -32, -33, 11, 42, 10, -6, -53, 22, -13, -11, 37, -4, 11, 8, 73, -43, 33, 34, -58, 56, 50, 1, 2, 21, 0, 67, -5, 4, 39, 9, 21, -19, -24, 33, 25, 18, 8, -4, 53, -25, 23, 29, 40, -21, 18, -27, -7, 38, -4, 35, 
  38, 29, 58, 16, 11, 31, 4, -31, -3, 50, 56, 16, -6, 13, 46, 14, -7, -17, 28, -39, 55, -52, 53, -48, 10, -17, 5, 13, 35, -37, 33, -45, -2, -31, -33, 47, -3, -47, 74, 39, 61, -78, 30, -30, 43, -52, 21, -58, -46, 5, -20, -46, 31, -73, -29, 30, 59, -9, -20, -56, 50, -22, 65, 63, -30, -20, -50, -51, 47, -41, 61, 39, -46, 48, 5, 37, -23, 8, 12, 62, 42, -23, -45, -13, -58, 47, 19, -31, 22, -36, -34, 99, 41, 3, -23, -13, 5, 35, 38, -1, 39, 11, 32, -51, 25, 12, -26, 7, 2, 8, 34, 39, 28, -34, -67, -20, -6, -32, -48, -4, 35, -51, -40, 29, 61, 29, 7, 12, -48, -18, -47, 7, -7, 14, -37, 37, 18, 40, 59, 52, 63, 20, -40, 38, 31, -19, -36, -14, -17, -56, 
  -50, -40, -16, 2, 23, -48, -49, -8, -55, -55, -51, -25, 41, -40, 0, 8, 34, -17, -14, 38, -53, -19, 58, -40, -31, 55, -39, -19, -26, -46, -47, 34, -60, -42, -5, 4, 24, -54, -49, -36, 6, 10, -44, 11, 40, 12, -56, 42, -15, -54, -6, -25, 47, -23, 30, 45, -11, -50, 41, -20, 50, 0, 18, -67, 1, -15, 23, 10, -44, -45, -48, 2, -13, -58, -51, 21, 44, -38, -25, -37, -52, -4, -7, 9, -35, 44, 8, -18, -49, 9, 55, 40, 38, 45, -1, -1, 0, -45, 10, 56, -45, 23, 51, -15, 33, -49, -56, -23, 47, -56, -55, 37, 17, 3, 2, 50, -36, -9, 9, 30, -45, -8, 26, -44, -46, 31, 41, 32, -40, 4, -60, -33, 52, 5, 36, -22, -43, 27, 32, -14, 33, -52, -43, 22, 14, 8, 0, -54, -39, -4, 
  33, -9, 9, 5, 43, -23, 38, -24, -39, -15, -39, 8, 46, 42, 53, 33, 31, 29, -51, -28, 30, -16, 18, -16, 3, 30, -3, -17, 56, -6, 19, 41, -11, 33, -40, -10, -16, -35, -37, 43, -36, 46, 0, -22, -6, 15, 47, -15, -9, -43, -34, 30, -51, 11, 25, -1, -23, 15, -19, 66, -31, 33, -56, -6, 26, -41, -57, -21, 9, 21, -16, -15, -40, 1, 34, 32, -31, 24, 31, 35, -11, 46, -34, -23, 13, -39, -41, -29, 44, -8, -43, -20, -46, -10, -19, 52, -58, -38, 3, 27, 8, -44, 36, 32, 14, -47, -12, 40, -33, 20, 17, 0, -29, 15, 49, -32, 34, 56, -3, -37, -43, 21, -47, 27, 6, -39, -60, 39, -13, -50, 28, -5, 2, 6, -25, -35, -72, -52, -29, -53, -29, -37, 4, -20, 50, 3, 18, 8, 11, 6, 
  40, -20, 40, -18, 52, -60, -3, 30, -60, -55, 11, 7, 58, 8, -36, -11, 33, -29, 15, -43, 27, 0, 53, -14, -51, 40, 1, -27, 37, 19, -32, 75, -17, -60, 43, -37, 19, 22, -37, -36, 49, 3, -53, -32, -12, -16, -8, 16, -29, -39, 29, -12, 16, -36, -12, 19, 32, 45, 22, 44, 12, 2, -51, -62, 14, -50, 26, -26, -22, 14, 37, 16, 6, 5, 10, -46, -1, 32, -30, 30, -22, -30, -32, 55, -46, -34, -9, 22, -37, 6, -29, -18, -16, 2, -57, -1, -11, -43, 47, 19, 28, 49, 4, -37, -22, 28, -42, -21, 42, 6, -12, -13, 39, -46, 10, -30, -27, -27, 0, 40, -9, -22, -19, -46, -36, 17, -28, 40, -67, 44, 42, -48, -14, 13, -38, -35, -52, -46, -33, 14, -56, 3, -6, 33, 21, 19, 52, -24, 63, 45, 
